{"learner":{"attributes":{},"feature_names":["batch_size","seq_len","hidden_size","block_size_value","num_warps","num_stages","use_vectorized_application"],"feature_types":["int","int","int","int","int","int","int"],"gradient_booster":{"model":{"gbtree_model_param":{"num_parallel_tree":"1","num_trees":"500"},"iteration_indptr":[0,1,2,3,4,5,6,7,8,9,10,11,12,13,14,15,16,17,18,19,20,21,22,23,24,25,26,27,28,29,30,31,32,33,34,35,36,37,38,39,40,41,42,43,44,45,46,47,48,49,50,51,52,53,54,55,56,57,58,59,60,61,62,63,64,65,66,67,68,69,70,71,72,73,74,75,76,77,78,79,80,81,82,83,84,85,86,87,88,89,90,91,92,93,94,95,96,97,98,99,100,101,102,103,104,105,106,107,108,109,110,111,112,113,114,115,116,117,118,119,120,121,122,123,124,125,126,127,128,129,130,131,132,133,134,135,136,137,138,139,140,141,142,143,144,145,146,147,148,149,150,151,152,153,154,155,156,157,158,159,160,161,162,163,164,165,166,167,168,169,170,171,172,173,174,175,176,177,178,179,180,181,182,183,184,185,186,187,188,189,190,191,192,193,194,195,196,197,198,199,200,201,202,203,204,205,206,207,208,209,210,211,212,213,214,215,216,217,218,219,220,221,222,223,224,225,226,227,228,229,230,231,232,233,234,235,236,237,238,239,240,241,242,243,244,245,246,247,248,249,250,251,252,253,254,255,256,257,258,259,260,261,262,263,264,265,266,267,268,269,270,271,272,273,274,275,276,277,278,279,280,281,282,283,284,285,286,287,288,289,290,291,292,293,294,295,296,297,298,299,300,301,302,303,304,305,306,307,308,309,310,311,312,313,314,315,316,317,318,319,320,321,322,323,324,325,326,327,328,329,330,331,332,333,334,335,336,337,338,339,340,341,342,343,344,345,346,347,348,349,350,351,352,353,354,355,356,357,358,359,360,361,362,363,364,365,366,367,368,369,370,371,372,373,374,375,376,377,378,379,380,381,382,383,384,385,386,387,388,389,390,391,392,393,394,395,396,397,398,399,400,401,402,403,404,405,406,407,408,409,410,411,412,413,414,415,416,417,418,419,420,421,422,423,424,425,426,427,428,429,430,431,432,433,434,435,436,437,438,439,440,441,442,443,444,445,446,447,448,449,450,451,452,453,454,455,456,457,458,459,460,461,462,463,464,465,466,467,468,469,470,471,472,473,474,475,476,477,478,479,480,481,482,483,484,485,486,487,488,489,490,491,492,493,494,495,496,497,498,499,500],"tree_info":[0,0,0,0,0,0,0,0,0,0,0,0,0,0,0,0,0,0,0,0,0,0,0,0,0,0,0,0,0,0,0,0,0,0,0,0,0,0,0,0,0,0,0,0,0,0,0,0,0,0,0,0,0,0,0,0,0,0,0,0,0,0,0,0,0,0,0,0,0,0,0,0,0,0,0,0,0,0,0,0,0,0,0,0,0,0,0,0,0,0,0,0,0,0,0,0,0,0,0,0,0,0,0,0,0,0,0,0,0,0,0,0,0,0,0,0,0,0,0,0,0,0,0,0,0,0,0,0,0,0,0,0,0,0,0,0,0,0,0,0,0,0,0,0,0,0,0,0,0,0,0,0,0,0,0,0,0,0,0,0,0,0,0,0,0,0,0,0,0,0,0,0,0,0,0,0,0,0,0,0,0,0,0,0,0,0,0,0,0,0,0,0,0,0,0,0,0,0,0,0,0,0,0,0,0,0,0,0,0,0,0,0,0,0,0,0,0,0,0,0,0,0,0,0,0,0,0,0,0,0,0,0,0,0,0,0,0,0,0,0,0,0,0,0,0,0,0,0,0,0,0,0,0,0,0,0,0,0,0,0,0,0,0,0,0,0,0,0,0,0,0,0,0,0,0,0,0,0,0,0,0,0,0,0,0,0,0,0,0,0,0,0,0,0,0,0,0,0,0,0,0,0,0,0,0,0,0,0,0,0,0,0,0,0,0,0,0,0,0,0,0,0,0,0,0,0,0,0,0,0,0,0,0,0,0,0,0,0,0,0,0,0,0,0,0,0,0,0,0,0,0,0,0,0,0,0,0,0,0,0,0,0,0,0,0,0,0,0,0,0,0,0,0,0,0,0,0,0,0,0,0,0,0,0,0,0,0,0,0,0,0,0,0,0,0,0,0,0,0,0,0,0,0,0,0,0,0,0,0,0,0,0,0,0,0,0,0,0,0,0,0,0,0,0,0,0,0,0,0,0,0,0,0,0,0,0,0,0,0,0,0,0,0,0,0,0,0,0,0,0,0,0,0,0,0,0,0,0,0,0,0,0,0,0,0,0,0,0,0,0,0,0,0,0,0,0,0,0,0,0,0,0,0,0,0,0,0,0,0,0,0,0,0,0,0,0,0,0,0,0],"trees":[{"base_weights":[-9.076576E-3,-3.955119E-1,5.23597E-1,-6.719226E-1,-5.770788E-2,7.0741343E-1,2.8922543E-1,-1.2546243E-2,-7.738082E-1,3.7377905E-2,-1.9482143E-1,5.0342983E-1,4.2283725E-2,4.536249E-2,1.9149001E-1,-3.2086257E-2,-4.5243155E-2,1.090563E-1,-5.623255E-1,4.252009E-2,2.1353496E-2,-8.931108E-2,4.355406E-1,1.7363008E-2,-4.576428E-2,-3.6870267E-2,-2.1580327E-2,-1.3592973E-2,3.5738626E-3,9.869656E-3,3.160457E-2,-6.748886E-3,-0E0],"categories":[],"categories_nodes":[],"categories_segments":[],"categories_sizes":[],"default_left":[0,0,0,0,0,0,0,0,0,0,0,0,0,0,0,0,0,0,0,0,0,0,0,0,0,0,0,0,0,0,0,0,0],"id":0,"left_children":[1,3,5,7,9,11,13,-1,15,-1,17,19,-1,-1,21,-1,-1,23,25,-1,-1,27,29,-1,31,-1,-1,-1,-1,-1,-1,-1,-1],"loss_changes":[9.794888E1,2.5650433E1,8.311565E0,6.2011185E0,1.3938485E1,2.5741882E0,5.1428185E0,0E0,1.3643417E0,0E0,1.2175755E1,7.7199554E-1,0E0,0E0,5.485811E0,0E0,0E0,2.2530818E0,6.914396E-1,0E0,0E0,1.1361341E0,1.7869778E0,0E0,1.4306149E-1,0E0,0E0,0E0,0E0,0E0,0E0,0E0,0E0],"parents":[2147483647,0,0,1,1,2,2,3,3,4,4,5,5,6,6,8,8,10,10,11,11,14,14,17,17,18,18,21,21,22,22,24,24],"right_children":[2,4,6,8,10,12,14,-1,16,-1,18,20,-1,-1,22,-1,-1,24,26,-1,-1,28,30,-1,32,-1,-1,-1,-1,-1,-1,-1,-1],"split_conditions":[1.28E2,6.4E1,8E0,4E0,5E1,1E0,5E1,-1.2546243E-2,8E0,3.7377905E-2,8E0,5E1,4.2283725E-2,4.536249E-2,2.56E2,-3.2086257E-2,-4.5243155E-2,4E0,1E0,4.252009E-2,2.1353496E-2,1E0,1E0,1.7363008E-2,1E0,-3.6870267E-2,-2.1580327E-2,-1.3592973E-2,3.5738626E-3,9.869656E-3,3.160457E-2,-6.748886E-3,-0E0],"split_indices":[3,3,4,4,1,6,1,0,4,0,4,1,0,0,3,0,0,4,6,0,0,6,6,0,6,0,0,0,0,0,0,0,0],"split_type":[0,0,0,0,0,0,0,0,0,0,0,0,0,0,0,0,0,0,0,0,0,0,0,0,0,0,0,0,0,0,0,0,0],"sum_hessian":[4.738968E2,2.7490698E2,1.9898979E2,1.5048575E2,1.24421234E2,1.1015265E2,8.883715E1,3.0188633E1,1.2029712E2,1.7349052E1,1.0707218E2,4.666694E1,6.348571E1,1.08598175E1,7.797733E1,6.3230354E1,5.7066765E1,5.884567E1,4.8226513E1,6.353031E0,4.0313908E1,3.6362946E1,4.1614384E1,2.2945345E1,3.5900322E1,1.8304306E1,2.9922209E1,1.6996918E1,1.9366026E1,1.9952421E1,2.1661964E1,1.1094221E1,2.48061E1],"tree_param":{"num_deleted":"0","num_feature":"7","num_nodes":"33","size_leaf_vector":"1"}},{"base_weights":[-3.4605956E-3,-1.8588011E-1,4.46624E-1,7.582279E-2,-2.725707E-1,2.9252467E-1,6.158932E-1,-3.942446E-1,1.440881E-1,-3.7944525E-1,-5.3875588E-2,4.5035177E-1,2.0493644E-1,1.468871E-2,3.2027762E-2,-4.2121213E-2,-2.3578478E-3,2.9456161E-2,3.2307768E-1,-4.7234964E-2,-3.2411388E-1,1.9990188E-1,-1.2214294E-1,8.783194E-3,5.748354E-1,1.729686E-2,1.250789E-1,1.09134406E-1,-5.319919E-3,4.7573093E-3,4.2474973E-1,-1.7748068E-1,-4.7616524E-1,-1.2288628E-3,2.6798284E-1,-1.8739742E-1,-6.266305E-2,3.249309E-2,1.0424854E-2,1.6974846E-3,1.5760852E-1,-3.4338442E-4,1.6044025E-1,3.2802116E-2,3.3027112E-1,-3.5321465E-1,-4.1870598E-2,-6.9193196E-1,-3.4334683E-1,4.468651E-3,1.5879162E-2,-1.4151278E-2,-1.2531024E-1,-6.753687E-3,-2.5023287E-2,1.1613986E-2,4.6443515E-3,1.11738555E-2,4.1089333E-3,9.498265E-3,2.1006456E-2,-2.2506967E-2,-9.173051E-3,8.625076E-2,-5.4990803E-3,-4.230457E-2,-2.9159222E-2,-5.1613134E-1,-2.3605974E-1,2.5927161E-3,-8.531375E-3,-4.8769E-3,1.0722887E-3,-1.478592E-3,1.0297034E-2,-1.362397E-2,-2.849494E-2,-1.5951803E-2,-9.150864E-3],"categories":[],"categories_nodes":[],"categories_segments":[],"categories_sizes":[],"default_left":[0,0,0,0,0,0,0,0,0,0,0,0,0,0,0,0,0,0,0,0,0,0,0,0,0,0,0,0,0,0,0,0,0,0,0,0,0,0,0,0,0,0,0,0,0,0,0,0,0,0,0,0,0,0,0,0,0,0,0,0,0,0,0,0,0,0,0,0,0,0,0,0,0,0,0,0,0,0,0],"id":1,"left_children":[1,3,5,7,9,11,13,15,17,19,21,23,25,-1,-1,-1,-1,27,29,-1,31,33,35,-1,37,-1,39,41,-1,-1,43,45,47,-1,49,51,53,-1,-1,-1,55,-1,57,-1,59,61,63,65,67,-1,-1,-1,69,-1,71,-1,-1,-1,-1,-1,-1,-1,-1,73,-1,-1,-1,75,77,-1,-1,-1,-1,-1,-1,-1,-1,-1,-1],"loss_changes":[6.22621E1,1.2291237E1,5.4321785E0,4.359394E0,9.428696E0,1.4549265E0,5.3647614E-1,2.5443382E0,2.390252E0,8.0846405E0,2.3518898E0,1.2052402E0,7.79685E-1,0E0,0E0,0E0,0E0,8.105933E-1,9.711046E-1,0E0,5.4182606E0,4.6866E-1,3.7913823E-1,0E0,5.237036E-1,0E0,1.2771487E-1,2.9895943E-1,0E0,0E0,3.652525E-1,3.0214643E0,3.1458569E0,0E0,1.2939012E-1,2.1932316E-1,1.3967083E-1,0E0,0E0,0E0,1.2355542E-1,0E0,1.1658049E-1,0E0,1.6721225E-1,7.714915E-1,6.6027176E-1,1.19543076E-1,1.2412052E0,0E0,0E0,0E0,2.8260672E-1,0E0,1.4629272E-1,0E0,0E0,0E0,0E0,0E0,0E0,0E0,0E0,3.819602E-1,0E0,0E0,0E0,1.3411856E-1,1.1175656E-1,0E0,0E0,0E0,0E0,0E0,0E0,0E0,0E0,0E0,0E0],"parents":[2147483647,0,0,1,1,2,2,3,3,4,4,5,5,6,6,7,7,8,8,9,9,10,10,11,11,12,12,17,17,18,18,20,20,21,21,22,22,24,24,26,26,27,27,30,30,31,31,32,32,34,34,35,35,36,36,40,40,42,42,44,44,45,45,46,46,47,47,48,48,52,52,54,54,63,63,67,67,68,68],"right_children":[2,4,6,8,10,12,14,16,18,20,22,24,26,-1,-1,-1,-1,28,30,-1,32,34,36,-1,38,-1,40,42,-1,-1,44,46,48,-1,50,52,54,-1,-1,-1,56,-1,58,-1,60,62,64,66,68,-1,-1,-1,70,-1,72,-1,-1,-1,-1,-1,-1,-1,-1,74,-1,-1,-1,76,78,-1,-1,-1,-1,-1,-1,-1,-1,-1,-1],"split_conditions":[2.56E2,4E0,1E0,5E1,1.28E2,1E2,4E0,1.28E2,1E0,5E1,8E0,8E0,4E0,1.468871E-2,3.2027762E-2,-4.2121213E-2,-2.3578478E-3,8.192E3,6.4E1,-4.7234964E-2,8E0,1E0,1E0,8.783194E-3,5E1,1.729686E-2,7.168E3,6.4E1,-5.319919E-3,4.7573093E-3,7.168E3,1E0,6.4E1,-1.2288628E-3,1E2,5E1,7.168E3,3.249309E-2,1.0424854E-2,1.6974846E-3,8E0,-3.4338442E-4,7.168E3,3.2802116E-2,2.56E2,6.4E1,7.168E3,1E0,1E0,4.468651E-3,1.5879162E-2,-1.4151278E-2,1E2,-6.753687E-3,5E1,1.1613986E-2,4.6443515E-3,1.11738555E-2,4.1089333E-3,9.498265E-3,2.1006456E-2,-2.2506967E-2,-9.173051E-3,6.4E1,-5.4990803E-3,-4.230457E-2,-2.9159222E-2,2E2,7.168E3,2.5927161E-3,-8.531375E-3,-4.8769E-3,1.0722887E-3,-1.478592E-3,1.0297034E-2,-1.362397E-2,-2.849494E-2,-1.5951803E-2,-9.150864E-3],"split_indices":[3,4,6,1,3,1,4,3,6,1,4,4,4,0,0,0,0,2,3,0,4,6,6,0,1,0,2,3,0,0,2,6,3,0,1,1,2,0,0,0,4,0,2,0,1,3,2,6,6,0,0,0,1,0,1,0,0,0,0,0,0,0,0,3,0,0,0,1,2,0,0,0,0,0,0,0,0,0,0],"split_type":[0,0,0,0,0,0,0,0,0,0,0,0,0,0,0,0,0,0,0,0,0,0,0,0,0,0,0,0,0,0,0,0,0,0,0,0,0,0,0,0,0,0,0,0,0,0,0,0,0,0,0,0,0,0,0,0,0,0,0,0,0,0,0,0,0,0,0,0,0,0,0,0,0,0,0,0,0,0,0],"sum_hessian":[7.566366E2,5.38992E2,2.1764456E2,1.3386128E2,4.0513074E2,1.1566466E2,1.019799E2,1.618349E1,1.17677795E2,2.713378E2,1.3379294E2,3.939484E1,7.626982E1,8.459145E0,9.352075E1,6.314548E0,9.868943E0,7.278603E1,4.489176E1,2.2598215E1,2.487396E2,2.7642286E1,1.0615065E2,1.3287924E1,2.6106916E1,2.5919975E1,5.0349846E1,4.64664E1,2.631963E1,1.4748191E1,3.0143572E1,1.2806395E2,1.2067566E2,6.2394605E0,2.1402826E1,4.8790974E1,5.7359673E1,2.0800127E1,5.30679E0,1.4591282E1,3.5758564E1,1.3917069E1,3.254933E1,6.711336E0,2.3432236E1,5.475986E1,7.3304085E1,4.4089184E1,7.658647E1,5.698965E0,1.570386E1,1.7172428E1,3.1618547E1,1.7824284E1,3.953539E1,1.46836195E1,2.1074944E1,1.6292795E1,1.6256535E1,1.0798383E1,1.2633854E1,3.3430912E1,2.1328947E1,2.4841341E1,4.846274E1,1.5051887E1,2.9037294E1,2.7521156E1,4.906532E1,5.9615145E0,2.5657034E1,1.585177E1,2.3683619E1,1.2582669E1,1.2258672E1,6.4084196E0,2.1112738E1,1.6442966E1,3.262235E1],"tree_param":{"num_deleted":"0","num_feature":"7","num_nodes":"79","size_leaf_vector":"1"}},{"base_weights":[-4.47864E-3,-2.5563094E-1,2.1216503E-1,-4.48337E-2,-2.1548125E-1,3.4485187E-2,3.2197922E-1,-4.090575E-1,-8.317108E-2,-4.6484374E-2,1.9748673E-1,3.8082433E-1,2.4960266E-1,-3.0361405E-1,-3.2986544E-2,8.613468E-2,-2.9562846E-1,4.1521692E-1,-1.3386943E-2,2.1697433E-1,4.7688478E-1,4.190217E-1,6.3911676E-3,-1.9345339E-1,-3.5230938E-1,1.0886292E-2,1.3058404E-2,-1.1146207E-2,-1.7873434E-2,1.8097524E-2,2.7507141E-2,3.3071525E-3,-2.1362824E-3,3.5565791E-3,2.9494736E-1,2.7260898E-2,3.6933133E-1,2.4364254E-1,2.7577449E-2,-5.920843E-4,-1.2980148E-2,-1.8928876E-2,-9.915407E-3,-5.6255184E-4,3.6635615E-3,1.8995356E-2,9.603456E-3,9.835003E-3,4.6568778E-1,1.627045E-2,5.5905166E-3,1.16090765E-2,2.7913878E-2],"categories":[],"categories_nodes":[],"categories_segments":[],"categories_sizes":[],"default_left":[0,0,0,0,0,0,0,0,0,0,0,0,0,0,0,0,0,0,0,0,0,0,0,0,0,0,0,0,0,0,0,0,0,0,0,0,0,0,0,0,0,0,0,0,0,0,0,0,0,0,0,0,0],"id":2,"left_children":[1,3,5,-1,7,9,11,13,15,-1,17,19,21,23,-1,25,27,29,31,33,35,37,-1,39,41,-1,43,-1,-1,-1,-1,-1,-1,-1,45,-1,47,49,-1,-1,-1,-1,-1,-1,-1,-1,-1,-1,51,-1,-1,-1,-1],"loss_changes":[3.896945E1,8.236807E0,7.4511776E0,0E0,7.9528275E0,2.3409637E1,8.514004E-1,3.055584E0,6.806507E0,0E0,5.9100623E0,1.842907E0,2.1603522E0,3.676014E-1,0E0,9.8475635E-1,2.391944E-1,1.632061E-1,1.5359512E-1,5.059202E-1,2.9158783E-1,8.3669853E-1,0E0,3.4060097E-1,1.1618519E-1,0E0,1.082113E-1,0E0,0E0,0E0,0E0,0E0,0E0,0E0,1.4538026E-1,0E0,4.170575E-1,1.5242219E-1,0E0,0E0,0E0,0E0,0E0,0E0,0E0,0E0,0E0,0E0,2.4704027E-1,0E0,0E0,0E0,0E0],"parents":[2147483647,0,0,1,1,2,2,4,4,5,5,6,6,7,7,8,8,10,10,11,11,12,12,13,13,15,15,16,16,17,17,18,18,19,19,20,20,21,21,23,23,24,24,26,26,34,34,36,36,37,37,48,48],"right_children":[2,4,6,-1,8,10,12,14,16,-1,18,20,22,24,-1,26,28,30,32,34,36,38,-1,40,42,-1,44,-1,-1,-1,-1,-1,-1,-1,46,-1,48,50,-1,-1,-1,-1,-1,-1,-1,-1,-1,-1,52,-1,-1,-1,-1],"split_conditions":[1.28E2,5E1,2.56E2,-4.48337E-2,6.4E1,5E1,8E0,8E0,8E0,-4.6484374E-2,8E0,4E0,5E1,4E0,-3.2986544E-2,4E0,2.56E2,3.2E1,3E0,5E1,1.6E1,1.6E1,6.3911676E-3,7.168E3,6E2,1.0886292E-2,4E0,-1.1146207E-2,-1.7873434E-2,1.8097524E-2,2.7507141E-2,3.3071525E-3,-2.1362824E-3,3.5565791E-3,1.6E1,2.7260898E-2,5E1,4E0,2.7577449E-2,-5.920843E-4,-1.2980148E-2,-1.8928876E-2,-9.915407E-3,-5.6255184E-4,3.6635615E-3,1.8995356E-2,9.603456E-3,9.835003E-3,7.168E3,1.627045E-2,5.5905166E-3,1.16090765E-2,2.7913878E-2],"split_indices":[3,1,3,0,3,1,4,4,4,0,4,4,1,4,0,4,1,0,5,1,0,0,0,2,1,0,5,0,0,0,0,0,0,0,0,0,1,5,0,0,0,0,0,0,0,0,0,0,2,0,0,0,0],"split_type":[0,0,0,0,0,0,0,0,0,0,0,0,0,0,0,0,0,0,0,0,0,0,0,0,0,0,0,0,0,0,0,0,0,0,0,0,0,0,0,0,0,0,0,0,0,0,0,0,0,0,0,0,0],"sum_hessian":[7.141346E2,3.308574E2,3.832772E2,1.8096632E1,3.1276074E2,1.4725029E2,2.3602692E2,1.2582508E2,1.8693567E2,2.052508E1,1.2672521E2,1.2707026E2,1.0895666E2,9.040653E1,3.5418552E1,1.04101685E2,8.2833984E1,6.2105522E1,6.461969E1,4.8553123E1,7.8517136E1,4.420157E1,6.475509E1,2.9866816E1,6.0539715E1,3.5974037E1,6.812765E1,4.093244E1,4.190154E1,4.769864E1,1.4406884E1,1.6157568E1,4.846212E1,1.8027943E1,3.052518E1,4.4955814E1,3.356132E1,2.057145E1,2.3630117E1,8.692515E0,2.1174301E1,4.99176E1,1.0622113E1,4.792962E1,2.0198029E1,1.4711335E1,1.5813845E1,1.3483537E1,2.0077785E1,1.1322184E1,9.249267E0,7.0033636E0,1.3074422E1],"tree_param":{"num_deleted":"0","num_feature":"7","num_nodes":"53","size_leaf_vector":"1"}},{"base_weights":[-1.07145915E-2,-2.4492991E-1,1.8927309E-1,1.4834745E-2,-3.3510706E-1,-1.7008422E-3,3.4514186E-1,-1.5805295E-2,8.215886E-2,-4.2569213E-2,-3.0056274E-1,-1.9060853E-1,7.129732E-2,1.8668228E-1,4.5475E-1,-3.8444392E-2,1.8264428E-1,-4.232875E-1,-2.0605704E-1,-3.601263E-3,-1.3110392E-2,1.2891782E-2,5.963071E-3,-4.1062698E-2,2.8447157E-1,3.4807244E-1,2.5197372E-2,-1.1955349E-2,6.4081955E-4,1.2643154E-1,2.137563E-2,-3.2711703E-1,-5.777058E-1,-6.0296707E-2,-3.2505083E-1,-7.0975074E-3,4.748124E-3,-7.142752E-4,5.9909592E-3,2.151397E-2,7.4764445E-2,4.447606E-1,1.1645654E-2,1.2868027E-2,2.7025666E-3,-1.9542713E-2,-1.2700841E-2,-3.685562E-2,-2.3885638E-2,-1.4783825E-1,-1.5177002E-2,-2.5375053E-2,-1.0934941E-2,6.2099267E-3,-0E0,4.8842197E-3,3.067479E-2,5.279141E-4,-1.0876598E-2,-2.1297147E-3,4.8366743E-3],"categories":[],"categories_nodes":[],"categories_segments":[],"categories_sizes":[],"default_left":[0,0,0,0,0,0,0,0,0,0,0,0,0,0,0,0,0,0,0,0,0,0,0,0,0,0,0,0,0,0,0,0,0,0,0,0,0,0,0,0,0,0,0,0,0,0,0,0,0,0,0,0,0,0,0,0,0,0,0,0,0],"id":3,"left_children":[1,3,5,7,9,11,13,-1,15,-1,17,19,21,23,25,27,29,31,33,35,-1,37,-1,-1,39,41,-1,-1,-1,43,-1,45,47,49,51,-1,-1,-1,-1,-1,53,55,-1,-1,-1,-1,-1,-1,-1,57,59,-1,-1,-1,-1,-1,-1,-1,-1,-1,-1],"loss_changes":[3.3524E1,7.7625465E0,1.1518997E1,1.9110837E0,4.0008907E0,2.4261076E0,3.545536E0,0E0,8.9671123E-1,0E0,2.5347767E0,6.30898E-1,3.379634E-1,8.95678E0,3.9369774E-1,3.6718944E-1,4.4147384E-1,1.1952362E0,2.2520409E0,2.2292979E-1,0E0,1.8324192E-1,0E0,0E0,2.4247537E0,3.0991602E-1,0E0,0E0,0E0,2.8003085E-1,0E0,1.3393927E-1,1.06681824E-1,2.242481E-1,1.22752E0,0E0,0E0,0E0,0E0,0E0,1.2714328E-1,1.1529479E0,0E0,0E0,0E0,0E0,0E0,0E0,0E0,2.4420023E-1,1.288963E-1,0E0,0E0,0E0,0E0,0E0,0E0,0E0,0E0,0E0,0E0],"parents":[2147483647,0,0,1,1,2,2,3,3,4,4,5,5,6,6,8,8,10,10,11,11,12,12,13,13,14,14,15,15,16,16,17,17,18,18,19,19,21,21,24,24,25,25,29,29,31,31,32,32,33,33,34,34,40,40,41,41,49,49,50,50],"right_children":[2,4,6,8,10,12,14,-1,16,-1,18,20,22,24,26,28,30,32,34,36,-1,38,-1,-1,40,42,-1,-1,-1,44,-1,46,48,50,52,-1,-1,-1,-1,-1,54,56,-1,-1,-1,-1,-1,-1,-1,58,60,-1,-1,-1,-1,-1,-1,-1,-1,-1,-1],"split_conditions":[1.28E2,4E0,1E0,1E2,5E1,2.56E2,2.56E2,-1.5805295E-2,6.4E1,-4.2569213E-2,6.4E1,4E0,1.6E1,5E1,3E0,3E0,1E0,8E0,8E0,2E2,-1.3110392E-2,5.12E2,5.963071E-3,-4.1062698E-2,8E0,8E0,2.5197372E-2,-1.1955349E-2,6.4081955E-4,8E0,2.137563E-2,1E0,1E0,1E0,1E0,-7.0975074E-3,4.748124E-3,-7.142752E-4,5.9909592E-3,2.151397E-2,5.12E2,5E1,1.1645654E-2,1.2868027E-2,2.7025666E-3,-1.9542713E-2,-1.2700841E-2,-3.685562E-2,-2.3885638E-2,2E2,5E0,-2.5375053E-2,-1.0934941E-2,6.2099267E-3,-0E0,4.8842197E-3,3.067479E-2,5.279141E-4,-1.0876598E-2,-2.1297147E-3,4.8366743E-3],"split_indices":[3,4,6,1,1,3,3,0,3,0,3,4,0,1,5,5,6,4,4,1,0,1,0,0,4,4,0,0,0,0,0,6,6,6,6,0,0,0,0,0,1,1,0,0,0,0,0,0,0,1,5,0,0,0,0,0,0,0,0,0,0],"split_type":[0,0,0,0,0,0,0,0,0,0,0,0,0,0,0,0,0,0,0,0,0,0,0,0,0,0,0,0,0,0,0,0,0,0,0,0,0,0,0,0,0,0,0,0,0,0,0,0,0,0,0,0,0,0,0,0,0,0,0,0,0],"sum_hessian":[7.1360175E2,3.2880154E2,3.848002E2,8.465902E1,2.4414253E2,1.730828E2,2.1171742E2,1.3435314E1,7.12237E1,1.3646707E1,2.3049583E2,4.817424E1,1.24908554E2,8.804583E1,1.2367159E2,3.2199677E1,3.9024025E1,9.830291E1,1.3219292E2,1.4015278E1,3.4158962E1,5.7835884E1,6.707267E1,7.0419593E0,8.100387E1,4.222353E1,8.144807E1,6.203214E0,2.5996464E1,3.330348E1,5.7205434E0,6.289708E1,3.540583E1,6.0469036E1,7.1723885E1,6.0697985E0,7.9454794E0,4.6060154E1,1.1775729E1,4.687993E1,3.412394E1,2.0924644E1,2.1298885E1,1.045468E1,2.2848799E1,3.0547453E1,3.2349625E1,1.0806559E1,2.4599272E1,1.9038164E1,4.143087E1,2.4677198E1,4.7046688E1,1.9970535E1,1.4153403E1,7.555366E0,1.3369278E1,5.638012E0,1.3400151E1,3.449323E1,6.937641E0],"tree_param":{"num_deleted":"0","num_feature":"7","num_nodes":"61","size_leaf_vector":"1"}},{"base_weights":[-1.0469474E-2,-2.3076126E-1,1.8327115E-1,-4.2418085E-2,-1.9365403E-1,6.222635E-2,2.495654E-1,4.6861183E-2,-2.7307904E-1,-4.202222E-2,1.4350295E-1,1.4160575E-1,3.5607108E-1,-7.447307E-2,1.4985089E-1,-4.321173E-1,-1.724004E-1,3.62411E-1,-7.14309E-2,7.004711E-2,1.6458564E-1,5.5533093E-3,3.7646934E-1,3.722459E-3,-5.613833E-3,1.04462765E-1,1.8406507E-2,-3.2127944E-1,-3.1382583E-2,-3.3959765E-2,-2.7402303E-1,4.9855104E-3,3.958013E-1,-1.2141201E-1,-1.3609589E-3,-2.375181E-2,1.4061131E-2,2.9104024E-1,3.9302832E-3,4.3977767E-1,3.0434555E-1,7.490606E-3,2.1219522E-2,-1.7734116E-2,-9.904766E-3,-1.3657482E-1,4.6285507E-4,-2.1262271E-2,-9.649324E-3,1.4580618E-2,2.3086715E-2,-2.2461487E-3,-9.653308E-3,2.1724652E-1,2.0908909E-2,2.7074296E-2,2.702546E-1,4.6928948E-1,8.558706E-3,-3.9470545E-3,6.7692637E-3,-1.03095155E-2,-6.572096E-4,6.1502103E-3,1.6842486E-2,1.3391486E-3,2.4904741E-2,1.4412463E-2,3.156486E-2],"categories":[],"categories_nodes":[],"categories_segments":[],"categories_sizes":[],"default_left":[0,0,0,0,0,0,0,0,0,0,0,0,0,0,0,0,0,0,0,0,0,0,0,0,0,0,0,0,0,0,0,0,0,0,0,0,0,0,0,0,0,0,0,0,0,0,0,0,0,0,0,0,0,0,0,0,0,0,0,0,0,0,0,0,0,0,0,0,0],"id":4,"left_children":[1,3,5,-1,7,9,11,13,15,-1,17,19,21,23,25,27,29,31,33,35,37,-1,39,-1,-1,41,-1,43,-1,45,47,-1,49,51,-1,-1,-1,53,-1,55,57,-1,59,-1,-1,61,-1,-1,-1,-1,-1,-1,-1,63,-1,-1,65,67,-1,-1,-1,-1,-1,-1,-1,-1,-1,-1,-1],"loss_changes":[3.055131E1,7.411869E0,3.0074253E0,0E0,6.1022367E0,1.0068981E1,2.717453E0,1.0106629E0,3.6951313E0,0E0,5.9939966E0,1.6861892E-1,5.202923E-1,2.1857047E-1,3.4737492E-1,1.690361E0,2.0494652E0,4.6298218E-1,1.2390992E-1,3.9008312E0,9.3960667E-1,0E0,3.0331707E-1,0E0,0E0,1.2303567E-1,0E0,1.2499046E-1,0E0,2.997306E-1,8.9890575E-1,0E0,1.68931E-1,1.2552837E-1,0E0,0E0,0E0,1.8677807E-1,0E0,7.497606E-1,1.0935874E0,0E0,1.9164355E-1,0E0,0E0,1.4586341E-1,0E0,0E0,0E0,0E0,0E0,0E0,0E0,2.0100081E-1,0E0,0E0,1.2444036E0,4.378066E-1,0E0,0E0,0E0,0E0,0E0,0E0,0E0,0E0,0E0,0E0,0E0],"parents":[2147483647,0,0,1,1,2,2,4,4,5,5,6,6,7,7,8,8,10,10,11,11,12,12,13,13,14,14,15,15,16,16,17,17,18,18,19,19,20,20,22,22,25,25,27,27,29,29,30,30,32,32,33,33,37,37,39,39,40,40,42,42,45,45,53,53,56,56,57,57],"right_children":[2,4,6,-1,8,10,12,14,16,-1,18,20,22,24,26,28,30,32,34,36,38,-1,40,-1,-1,42,-1,44,-1,46,48,-1,50,52,-1,-1,-1,54,-1,56,58,-1,60,-1,-1,62,-1,-1,-1,-1,-1,-1,-1,64,-1,-1,66,68,-1,-1,-1,-1,-1,-1,-1,-1,-1,-1,-1],"split_conditions":[1.28E2,5E1,2.56E2,-4.2418085E-2,4E0,5E1,1E0,6.4E1,6.4E1,-4.202222E-2,8E0,4E0,4E0,1E2,1E0,8E0,8E0,1E2,1E0,5E1,5E1,5.5533093E-3,8E0,3.722459E-3,-5.613833E-3,1.6E1,1.8406507E-2,3.2E1,-3.1382583E-2,1E0,1E0,4.9855104E-3,4E0,2.56E2,-1.3609589E-3,-2.375181E-2,1.4061131E-2,3.2E1,3.9302832E-3,1.6E1,5E1,7.490606E-3,3.2E1,-1.7734116E-2,-9.904766E-3,4E0,4.6285507E-4,-2.1262271E-2,-9.649324E-3,1.4580618E-2,2.3086715E-2,-2.2461487E-3,-9.653308E-3,5E0,2.0908909E-2,2.7074296E-2,5E1,1.6E1,8.558706E-3,-3.9470545E-3,6.7692637E-3,-1.03095155E-2,-6.572096E-4,6.1502103E-3,1.6842486E-2,1.3391486E-3,2.4904741E-2,1.4412463E-2,3.156486E-2],"split_indices":[3,1,3,0,4,1,6,3,3,0,4,4,4,1,6,4,4,1,6,1,1,0,4,0,0,0,0,0,0,6,6,0,5,1,0,0,0,0,0,0,1,0,0,0,0,5,0,0,0,0,0,0,0,5,0,0,1,0,0,0,0,0,0,0,0,0,0,0,0],"split_type":[0,0,0,0,0,0,0,0,0,0,0,0,0,0,0,0,0,0,0,0,0,0,0,0,0,0,0,0,0,0,0,0,0,0,0,0,0,0,0,0,0,0,0,0,0,0,0,0,0,0,0,0,0,0,0,0,0,0,0,0,0,0,0,0,0,0,0,0,0],"sum_hessian":[7.137293E2,3.3413168E2,3.7959763E2,1.7545916E1,3.1658575E2,1.355492E2,2.4404843E2,7.838149E1,2.3820427E2,1.0323531E1,1.2522567E2,1.2282012E2,1.2122831E2,3.5667183E1,4.271431E1,9.067813E1,1.4752614E2,6.1929836E1,6.329583E1,3.1896183E1,9.092394E1,1.0189442E1,1.11038864E2,6.4892054E0,2.9177977E1,3.6964714E1,5.7495947E0,5.9886307E1,3.0791819E1,6.3431507E1,8.409463E1,7.7711105E0,5.4158726E1,2.7828203E1,3.546763E1,8.425465E0,2.3470718E1,3.536419E1,5.5559753E1,5.5680202E1,5.535866E1,2.263345E1,1.4331266E1,4.4994446E1,1.4891862E1,1.8843288E1,4.458822E1,2.7428562E1,5.6666065E1,2.367944E1,3.0479286E1,1.4921938E1,1.2906265E1,2.4588034E1,1.0776155E1,3.306077E1,2.2619434E1,2.3266413E1,3.209225E1,7.331643E0,6.9996233E0,1.1101386E1,7.7419033E0,1.5354144E1,9.233891E0,1.1687037E1,1.0932398E1,1.2591814E1,1.0674599E1],"tree_param":{"num_deleted":"0","num_feature":"7","num_nodes":"69","size_leaf_vector":"1"}},{"base_weights":[2.3939144E-3,-1.3756396E-1,2.6111788E-1,-4.2787354E-2,-8.808436E-2,1.266405E-1,1.948972E-2,1.33829E-1,-1.6780098E-1,1.8602219E-1,4.8963656E-3,-8.240873E-2,2.3074628E-1,-3.5268044E-1,-8.8329375E-2,1.04559265E-1,1.22875525E-2,-6.8649277E-3,-0E0,6.1382963E-3,3.9282966E-1,-2.7282935E-1,-4.9665496E-1,6.681957E-2,-1.7584626E-1,8.763655E-3,-0E0,-6.3603404E-3,5.273184E-3,1.05320765E-2,2.2285832E-2,-1.7198937E-2,-2.0394458E-1,-3.588019E-2,-1.8885668E-2,-6.3104453E-3,2.883567E-1,-2.537742E-1,-7.599264E-2,-1.5255679E-2,-5.7368926E-3,-8.401319E-2,1.4106804E-3,1.0142489E-3,1.9878717E-2,-3.9251217E-1,-9.019231E-3,-6.447386E-3,-2.396135E-2,-0E0,-7.6452023E-3,-9.171018E-3,-2.2105256E-2,-4.8391963E-3,7.765992E-4],"categories":[],"categories_nodes":[],"categories_segments":[],"categories_sizes":[],"default_left":[0,0,0,0,0,0,0,0,0,0,0,0,0,0,0,0,0,0,0,0,0,0,0,0,0,0,0,0,0,0,0,0,0,0,0,0,0,0,0,0,0,0,0,0,0,0,0,0,0,0,0,0,0,0,0],"id":5,"left_children":[1,3,5,-1,7,9,-1,11,13,15,-1,17,19,21,23,25,-1,-1,27,-1,29,31,33,35,37,-1,-1,-1,-1,-1,-1,-1,39,-1,-1,41,43,45,47,-1,-1,49,-1,-1,-1,51,-1,-1,53,-1,-1,-1,-1,-1,-1],"loss_changes":[2.5512194E1,1.606131E1,4.181101E0,0E0,7.6072016E0,1.6287768E-1,0E0,2.412235E0,4.5687265E0,1.2319267E-1,0E0,1.594556E-1,1.2819376E0,8.717718E-1,3.0474005E0,1.2369852E-1,0E0,0E0,2.1858713E-1,0E0,1.3667774E-1,1.8543863E-1,4.5984125E-1,1.3366773E0,1.0613585E0,0E0,0E0,0E0,0E0,0E0,0E0,0E0,2.4201393E-1,0E0,0E0,1.7232887E-1,5.467504E-1,6.8026733E-1,1.5994796E-1,0E0,0E0,1.2977433E-1,0E0,0E0,0E0,1.2746954E-1,0E0,0E0,1.0978897E-1,0E0,0E0,0E0,0E0,0E0,0E0],"parents":[2147483647,0,0,1,1,2,2,4,4,5,5,7,7,8,8,9,9,11,11,12,12,13,13,14,14,15,15,18,18,20,20,21,21,22,22,23,23,24,24,32,32,35,35,36,36,37,37,38,38,41,41,45,45,48,48],"right_children":[2,4,6,-1,8,10,-1,12,14,16,-1,18,20,22,24,26,-1,-1,28,-1,30,32,34,36,38,-1,-1,-1,-1,-1,-1,-1,40,-1,-1,42,44,46,48,-1,-1,50,-1,-1,-1,52,-1,-1,54,-1,-1,-1,-1,-1,-1],"split_conditions":[2.56E2,5E1,1E0,-4.2787354E-2,4E0,3E0,1.948972E-2,6.4E1,6.4E1,1.6E1,4.8963656E-3,1E0,1E0,8E0,8E0,2E2,1.22875525E-2,-6.8649277E-3,1.6E1,6.1382963E-3,2E2,2.56E2,1E0,1.28E2,1.28E2,8.763655E-3,-0E0,-6.3603404E-3,5.273184E-3,1.05320765E-2,2.2285832E-2,-1.7198937E-2,1E0,-3.588019E-2,-1.8885668E-2,1E0,1E0,1E0,1E0,-1.5255679E-2,-5.7368926E-3,2.56E2,1.4106804E-3,1.0142489E-3,1.9878717E-2,2E2,-9.019231E-3,-6.447386E-3,3E0,-0E0,-7.6452023E-3,-9.171018E-3,-2.2105256E-2,-4.8391963E-3,7.765992E-4],"split_indices":[3,1,6,0,4,5,0,3,3,0,0,6,6,4,4,1,0,0,0,0,1,1,6,3,3,0,0,0,0,0,0,0,6,0,0,6,6,6,6,0,0,1,0,0,0,1,0,0,5,0,0,0,0,0,0],"split_type":[0,0,0,0,0,0,0,0,0,0,0,0,0,0,0,0,0,0,0,0,0,0,0,0,0,0,0,0,0,0,0,0,0,0,0,0,0,0,0,0,0,0,0,0,0,0,0,0,0,0,0,0,0,0,0],"sum_hessian":[7.022201E2,4.5575772E2,2.4646237E2,2.8195244E1,4.2756247E2,1.21864975E2,1.245974E2,1.1248791E2,3.150746E2,3.6799217E1,8.506576E1,3.45405E1,7.79474E1,9.330877E1,2.2176581E2,1.743914E1,1.9360077E1,2.026256E1,1.4277942E1,4.82065E1,2.9740904E1,6.2329277E1,3.0979496E1,7.965254E1,1.4211327E2,9.588544E0,7.850597E0,6.4193363E0,7.8586054E0,8.237519E0,2.1503386E1,2.7982058E1,3.434722E1,8.785445E0,2.219405E1,6.027554E1,1.9376999E1,7.839174E1,6.3721523E1,1.4435121E1,1.99121E1,1.8992495E1,4.1283047E1,6.217542E0,1.3159456E1,2.514531E1,5.3246426E1,2.9895273E1,3.3826252E1,8.406105E0,1.0586389E1,6.1079893E0,1.9037321E1,1.2274492E1,2.1551758E1],"tree_param":{"num_deleted":"0","num_feature":"7","num_nodes":"55","size_leaf_vector":"1"}},{"base_weights":[-2.5615138E-3,-2.0425037E-1,1.6817231E-1,1.7228425E-3,-2.65252E-1,5.414916E-2,2.2686777E-1,-5.0032637E-3,9.019232E-2,-3.7415785E-1,-1.8691468E-1,1.963001E-1,-6.674351E-2,7.8012296E-3,2.95733E-1,1.0048761E-2,-4.4756666E-2,-2.8026852E-1,-2.7695471E-2,-7.872418E-2,-2.6700476E-1,3.549053E-3,1.276763E-2,-9.230974E-3,-6.673459E-3,7.643583E-2,3.181693E-1,1.5034516E-3,-7.4147084E-3,-1.6554949E-1,-1.6709838E-2,8.932395E-4,-6.042961E-3,-1.7436272E-2,-2.240758E-1,5.28516E-3,-2.4289365E-3,8.150384E-3,-1.6292062E-3,3.626298E-1,1.2779835E-2,-1.799384E-2,-4.5558586E-4,7.858273E-3,-2.3662457E-3,-1.4991567E-2,-1.6021238E-1,2.125801E-2,2.6773605E-1,-1.2660705E-2,-5.032547E-3,5.7328814E-3,3.4786534E-1,2.3949636E-2,1.1085722E-2],"categories":[],"categories_nodes":[],"categories_segments":[],"categories_sizes":[],"default_left":[0,0,0,0,0,0,0,0,0,0,0,0,0,0,0,0,0,0,0,0,0,0,0,0,0,0,0,0,0,0,0,0,0,0,0,0,0,0,0,0,0,0,0,0,0,0,0,0,0,0,0,0,0,0,0],"id":6,"left_children":[1,3,5,7,9,11,13,-1,15,17,19,21,23,-1,25,-1,27,29,-1,31,33,-1,-1,-1,35,37,39,-1,-1,41,-1,43,-1,-1,45,-1,-1,-1,-1,47,-1,-1,-1,-1,-1,-1,49,-1,51,-1,-1,-1,53,-1,-1],"loss_changes":[2.4318878E1,4.097477E0,2.517171E0,6.80227E-1,2.009634E0,2.2903152E0,1.1351061E0,0E0,6.3737065E-1,1.5030088E0,1.2279706E0,4.0206194E-1,4.8640594E-1,0E0,5.5439854E-1,0E0,1.62619E-1,3.2887554E-1,0E0,2.3002845E-1,1.5986633E-1,0E0,0E0,0E0,2.3021275E-1,1.447396E-1,1.6054916E-1,0E0,0E0,7.2031325E-1,0E0,1.8911205E-1,0E0,0E0,1.9034958E-1,0E0,0E0,0E0,0E0,1.9002056E-1,0E0,0E0,0E0,0E0,0E0,0E0,1.3166535E-1,0E0,2.6116633E-1,0E0,0E0,0E0,1.1594319E-1,0E0,0E0],"parents":[2147483647,0,0,1,1,2,2,3,3,4,4,5,5,6,6,8,8,9,9,10,10,11,11,12,12,14,14,16,16,17,17,19,19,20,20,24,24,25,25,26,26,29,29,31,31,34,34,39,39,46,46,48,48,52,52],"right_children":[2,4,6,8,10,12,14,-1,16,18,20,22,24,-1,26,-1,28,30,-1,32,34,-1,-1,-1,36,38,40,-1,-1,42,-1,44,-1,-1,46,-1,-1,-1,-1,48,-1,-1,-1,-1,-1,-1,50,-1,52,-1,-1,-1,54,-1,-1],"split_conditions":[1.28E2,4E0,2.56E2,6.4E1,6.4E1,8E0,1E0,-5.0032637E-3,8.192E3,8E0,8E0,1E0,7.168E3,7.8012296E-3,4E0,1.0048761E-2,4E0,7.168E3,-2.7695471E-2,7.168E3,1E0,3.549053E-3,1.276763E-2,-9.230974E-3,3E0,1.6E1,8E0,1.5034516E-3,-7.4147084E-3,1E0,-1.6709838E-2,3E0,-6.042961E-3,-1.7436272E-2,3E0,5.28516E-3,-2.4289365E-3,8.150384E-3,-1.6292062E-3,1.6E1,1.2779835E-2,-1.799384E-2,-4.5558586E-4,7.858273E-3,-2.3662457E-3,-1.4991567E-2,7.168E3,2.125801E-2,7.168E3,-1.2660705E-2,-5.032547E-3,5.7328814E-3,8.192E3,2.3949636E-2,1.1085722E-2],"split_indices":[3,4,3,3,3,4,6,0,2,4,4,6,2,0,4,0,5,2,0,2,6,0,0,0,5,0,4,0,0,6,0,5,0,0,5,0,0,0,0,0,0,0,0,0,0,0,2,0,2,0,0,0,2,0,0],"split_type":[0,0,0,0,0,0,0,0,0,0,0,0,0,0,0,0,0,0,0,0,0,0,0,0,0,0,0,0,0,0,0,0,0,0,0,0,0,0,0,0,0,0,0,0,0,0,0,0,0,0,0,0,0,0,0],"sum_hessian":[7.041211E2,3.229765E2,3.811446E2,7.3645035E1,2.4933145E2,1.3075774E2,2.5038684E2,3.365827E1,3.9986763E1,1.02199394E2,1.4713206E2,6.0188663E1,7.056907E1,1.2574649E2,1.2464036E2,2.2097853E1,1.7888912E1,6.918016E1,3.3019234E1,6.396111E1,8.317095E1,2.052553E1,3.9663136E1,2.2560429E1,4.8008644E1,1.2391079E1,1.12249275E2,1.023553E1,7.653383E0,2.4016054E1,4.516411E1,2.16525E1,4.230861E1,2.5388346E1,5.7782604E1,1.1978183E1,3.603046E1,7.141849E0,5.2492304E0,6.1884335E1,5.036494E1,9.845846E0,1.4170207E1,5.0618343E0,1.6590666E1,2.4024147E1,3.3758457E1,3.457011E1,2.7314222E1,1.1254683E1,2.2503775E1,1.0649116E1,1.6665108E1,6.4112544E0,1.0253853E1],"tree_param":{"num_deleted":"0","num_feature":"7","num_nodes":"55","size_leaf_vector":"1"}},{"base_weights":[-1.289973E-3,-1.9411759E-1,1.6613421E-1,-3.9748557E-2,-1.602857E-1,7.147533E-2,2.4609418E-1,6.009935E-2,-2.3353426E-1,-5.798674E-2,1.2804647E-1,3.1796202E-1,1.4906672E-1,-3.984181E-3,1.7161928E-1,-3.5401845E-1,-1.4563023E-1,3.617032E-3,-1.5787211E-1,5.5717424E-2,1.5080664E-1,8.748867E-2,2.1287756E-2,3.2743365E-2,2.266871E-1,1.3777246E-2,5.5394913E-3,-1.4408748E-2,-2.3308186E-2,-3.2528423E-2,-2.4078473E-1,-9.505442E-3,-4.5111246E-4,-2.3166412E-2,2.1933453E-1,2.6651976E-1,6.787345E-2,-2.2279011E-2,2.2185117E-1,-1.3647186E-2,1.025232E-2,1.8898843E-2,5.974802E-3,-9.111934E-2,-0E0,-1.8958049E-2,-8.052465E-3,1.608863E-2,3.2511563E-3,-0E0,1.9193439E-2,1.0107283E-2,-0E0,1.7894363E-2,1.1636021E-3,-6.8924115E-3,1.0879689E-3,-7.3506567E-3,1.0640967E-5,4.8753456E-3,-1.9829918E-3,-4.6162147E-2,3.3788916E-3,1.7329922E-3,-5.692846E-3],"categories":[],"categories_nodes":[],"categories_segments":[],"categories_sizes":[],"default_left":[0,0,0,0,0,0,0,0,0,0,0,0,0,0,0,0,0,0,0,0,0,0,0,0,0,0,0,0,0,0,0,0,0,0,0,0,0,0,0,0,0,0,0,0,0,0,0,0,0,0,0,0,0,0,0,0,0,0,0,0,0,0,0,0,0],"id":7,"left_children":[1,3,5,-1,7,9,11,13,15,17,19,21,23,-1,25,27,29,-1,31,33,35,37,-1,39,41,-1,-1,-1,-1,43,45,-1,-1,-1,47,49,51,-1,53,55,-1,-1,-1,57,59,-1,-1,-1,-1,-1,-1,-1,61,-1,-1,-1,-1,-1,-1,-1,-1,63,-1,-1,-1],"loss_changes":[2.2558851E1,6.383218E0,2.7791462E0,0E0,5.020592E0,1.2822037E0,1.311657E0,1.2318099E0,2.3610325E0,7.071814E-1,1.7065263E-1,2.7519894E0,7.6351285E-1,0E0,2.0806313E-1,5.057554E-1,1.4350636E0,0E0,1.2536609E-1,2.7671785E0,8.182783E-1,2.7974756E0,0E0,3.17742E-1,7.524233E-1,0E0,0E0,0E0,0E0,1.274685E-1,6.9649076E-1,0E0,0E0,0E0,3.3412993E-1,1.1309218E0,5.056919E-1,0E0,7.9529166E-1,1.4493813E-1,0E0,0E0,0E0,1.3475707E-1,1.679253E-1,0E0,0E0,0E0,0E0,0E0,0E0,0E0,1.1806E-1,0E0,0E0,0E0,0E0,0E0,0E0,0E0,0E0,1.375736E-1,0E0,0E0,0E0],"parents":[2147483647,0,0,1,1,2,2,4,4,5,5,6,6,7,7,8,8,9,9,10,10,11,11,12,12,14,14,15,15,16,16,18,18,19,19,20,20,21,21,23,23,24,24,29,29,30,30,34,34,35,35,36,36,38,38,39,39,43,43,44,44,52,52,61,61],"right_children":[2,4,6,-1,8,10,12,14,16,18,20,22,24,-1,26,28,30,-1,32,34,36,38,-1,40,42,-1,-1,-1,-1,44,46,-1,-1,-1,48,50,52,-1,54,56,-1,-1,-1,58,60,-1,-1,-1,-1,-1,-1,-1,62,-1,-1,-1,-1,-1,-1,-1,-1,64,-1,-1,-1],"split_conditions":[1.28E2,5E1,1E0,-3.9748557E-2,4E0,2.56E2,8E0,6.4E1,6.4E1,8E0,4E0,5E1,2.56E2,-3.984181E-3,7.168E3,8E0,8E0,3.617032E-3,6E2,5E1,5E1,4E0,2.1287756E-2,6E2,5E1,1.3777246E-2,5.5394913E-3,-1.4408748E-2,-2.3308186E-2,1E0,1E0,-9.505442E-3,-4.5111246E-4,-2.3166412E-2,8.192E3,8E0,8E0,-2.2279011E-2,1.6E1,1E2,1.025232E-2,1.8898843E-2,5.974802E-3,8.192E3,7.168E3,-1.8958049E-2,-8.052465E-3,1.608863E-2,3.2511563E-3,-0E0,1.9193439E-2,1.0107283E-2,8.192E3,1.7894363E-2,1.1636021E-3,-6.8924115E-3,1.0879689E-3,-7.3506567E-3,1.0640967E-5,4.8753456E-3,-1.9829918E-3,1.6E1,3.3788916E-3,1.7329922E-3,-5.692846E-3],"split_indices":[3,1,6,0,4,3,4,3,3,4,4,1,3,0,2,4,4,0,1,1,1,4,0,1,1,0,0,0,0,6,6,0,0,0,2,4,4,0,0,1,0,0,0,2,2,0,0,0,0,0,0,0,2,0,0,0,0,0,0,0,0,0,0,0,0],"split_type":[0,0,0,0,0,0,0,0,0,0,0,0,0,0,0,0,0,0,0,0,0,0,0,0,0,0,0,0,0,0,0,0,0,0,0,0,0,0,0,0,0,0,0,0,0,0,0,0,0,0,0,0,0,0,0,0,0,0,0,0,0,0,0,0,0],"sum_hessian":[6.966769E2,3.2397858E2,3.726983E2,1.59128685E1,3.080657E2,1.7210275E2,2.0059557E2,7.655295E1,2.3151276E2,5.1789852E1,1.203129E2,1.13338524E2,8.7257034E1,3.370043E1,4.2852516E1,9.590174E1,1.3561101E2,2.2156E1,2.9633854E1,3.0674559E1,8.963834E1,3.6989754E1,7.634877E1,3.6006775E1,5.125026E1,1.3911439E1,2.8941078E1,6.323572E1,3.2666023E1,6.305539E1,7.2555626E1,2.3578423E1,6.0554304E0,6.7664027E0,2.3908157E1,3.5995667E1,5.3642673E1,6.830392E0,3.015936E1,2.863702E1,7.3697557E0,1.981882E1,3.1431438E1,2.251579E1,4.0539597E1,2.4692987E1,4.7862637E1,1.3327546E1,1.058061E1,1.1487061E1,2.4508608E1,1.7535656E1,3.6107018E1,1.7123285E1,1.3036077E1,6.3373976E0,2.2299623E1,1.4268782E1,8.24701E0,1.1730755E1,2.8808842E1,2.1976137E1,1.413088E1,9.565954E0,1.2410183E1],"tree_param":{"num_deleted":"0","num_feature":"7","num_nodes":"65","size_leaf_vector":"1"}},{"base_weights":[-0E0,-1.9992039E-1,1.6303527E-1,-3.893862E-2,-1.657172E-1,6.620373E-2,2.434919E-1,2.8211461E-2,-2.258549E-1,-3.870944E-2,5.7287966E-3,1.0305196E-1,3.258474E-1,-6.1941236E-2,1.05432704E-1,-3.4770387E-1,-1.385701E-1,5.252223E-3,-6.987856E-3,-3.6364038E-2,1.7788287E-1,2.6412943E-1,3.742243E-1,2.4390887E-3,-5.8402987E-3,3.0313034E-3,1.533331E-2,-1.4041972E-2,-2.3297839E-2,-1.3041688E-2,-2.3517124E-1,1.4561604E-2,1.3780828E-3,2.1263061E-1,3.416493E-1,2.2889229E-2,1.270359E-2,-4.7679613E-3,1.0492268E-3,-3.202061E-1,-1.8369293E-1,1.4179205E-2,5.2700737E-3,8.775744E-3,2.2941092E-2,-1.0613719E-2,-2.0696564E-2,-4.4550705E-3,-1.105448E-2],"categories":[],"categories_nodes":[],"categories_segments":[],"categories_sizes":[],"default_left":[0,0,0,0,0,0,0,0,0,0,0,0,0,0,0,0,0,0,0,0,0,0,0,0,0,0,0,0,0,0,0,0,0,0,0,0,0,0,0,0,0,0,0,0,0,0,0,0,0],"id":8,"left_children":[1,3,5,-1,7,9,11,13,15,17,-1,19,21,23,25,27,29,-1,-1,-1,31,33,35,-1,-1,-1,-1,-1,-1,37,39,-1,-1,41,43,-1,-1,-1,-1,45,47,-1,-1,-1,-1,-1,-1,-1,-1],"loss_changes":[2.2559048E1,5.932275E0,2.922638E0,0E0,3.4666328E0,8.9975595E-1,2.3206968E0,5.004528E-1,2.3034601E0,8.213924E-1,0E0,4.9534945E0,2.2467613E-1,2.0979556E-1,2.9493794E-1,5.302086E-1,1.5925586E0,0E0,0E0,0E0,1.2030134E0,1.1670637E-1,5.094881E-1,0E0,0E0,0E0,0E0,0E0,0E0,1.7644177E-1,2.1913624E-1,0E0,0E0,2.3754823E-1,2.8529143E-1,0E0,0E0,0E0,0E0,1.146214E-1,1.2544894E-1,0E0,0E0,0E0,0E0,0E0,0E0,0E0,0E0],"parents":[2147483647,0,0,1,1,2,2,4,4,5,5,6,6,7,7,8,8,9,9,11,11,12,12,13,13,14,14,15,15,16,16,20,20,21,21,22,22,29,29,30,30,33,33,34,34,39,39,40,40],"right_children":[2,4,6,-1,8,10,12,14,16,18,-1,20,22,24,26,28,30,-1,-1,-1,32,34,36,-1,-1,-1,-1,-1,-1,38,40,-1,-1,42,44,-1,-1,-1,-1,46,48,-1,-1,-1,-1,-1,-1,-1,-1],"split_conditions":[1.28E2,5E1,1E0,-3.893862E-2,4E0,2.56E2,2.56E2,6.4E1,6.4E1,8E0,5.7287966E-3,5E1,5E1,7.168E3,1E0,8E0,8E0,5.252223E-3,-6.987856E-3,-3.6364038E-2,8E0,8E0,8E0,2.4390887E-3,-5.8402987E-3,3.0313034E-3,1.533331E-2,-1.4041972E-2,-2.3297839E-2,1E0,1E0,1.4561604E-2,1.3780828E-3,1.6E1,1.6E1,2.2889229E-2,1.270359E-2,-4.7679613E-3,1.0492268E-3,2.56E2,8E0,1.4179205E-2,5.2700737E-3,8.775744E-3,2.2941092E-2,-1.0613719E-2,-2.0696564E-2,-4.4550705E-3,-1.105448E-2],"split_indices":[3,1,6,0,4,3,3,3,3,4,0,1,1,2,6,4,4,0,0,0,4,4,4,0,0,0,0,0,0,6,6,0,0,0,0,0,0,0,0,1,0,0,0,0,0,0,0,0,0],"split_type":[0,0,0,0,0,0,0,0,0,0,0,0,0,0,0,0,0,0,0,0,0,0,0,0,0,0,0,0,0,0,0,0,0,0,0,0,0,0,0,0,0,0,0,0,0,0,0,0,0],"sum_hessian":[6.901071E2,3.0992023E2,3.801869E2,1.5913235E1,2.94007E2,1.739271E2,2.062598E2,6.9323746E1,2.2468326E2,5.429676E1,1.1963034E2,7.752418E1,1.2873563E2,3.1477695E1,3.7846054E1,9.20512E1,1.3263205E2,2.1987457E1,3.2309303E1,5.577726E0,7.194646E1,6.03147E1,6.842092E1,9.862435E0,2.161526E1,3.2424603E1,5.421452E0,6.149838E1,3.0552824E1,5.8623676E1,7.400838E1,4.0103725E1,3.1842728E1,3.9263607E1,2.1051096E1,3.8207294E1,3.0213625E1,1.7477596E1,4.114608E1,2.5207079E1,4.8801296E1,2.207762E1,1.7185986E1,1.0092581E1,1.0958516E1,1.3728949E1,1.147813E1,1.554309E1,3.3258205E1],"tree_param":{"num_deleted":"0","num_feature":"7","num_nodes":"49","size_leaf_vector":"1"}},{"base_weights":[-3.3526535E-3,-1.8608867E-1,1.487201E-1,-8.2214646E-2,-3.6929396E-1,3.0825403E-2,2.079598E-1,-3.665651E-2,-4.5773856E-2,-3.3936027E-2,-3.4493193E-1,-3.833386E-2,9.889515E-2,1.1087368E-1,3.0770838E-1,-1.3785145E-1,4.06089E-2,-2.3321701E-2,-1.453276E-2,2.1991356E-1,-1.4156679E-2,8.3357476E-2,1.6595298E-1,3.768336E-3,3.2383537E-1,-2.4616285E-1,-3.76946E-2,7.281983E-3,-1.4407799E-3,6.858423E-3,2.954104E-1,-8.228804E-2,1.9484028E-3,7.1796863E-3,2.596332E-2,4.2616506E-3,1.1270936E-2,1.7549738E-2,1.20217195E-2,-6.1693215E-3,-1.597503E-2,-1.330391E-1,3.5175856E-2,4.2786123E-3,1.672437E-2,-1.1780515E-1,1.2594898E-3,2.2481846E-4,7.7005774E-3,-1.4166367E-2,-0E0,4.885185E-3,-1.5543464E-3,-1.587713E-3,-9.536065E-3],"categories":[],"categories_nodes":[],"categories_segments":[],"categories_sizes":[],"default_left":[0,0,0,0,0,0,0,0,0,0,0,0,0,0,0,0,0,0,0,0,0,0,0,0,0,0,0,0,0,0,0,0,0,0,0,0,0,0,0,0,0,0,0,0,0,0,0,0,0,0,0,0,0,0,0],"id":9,"left_children":[1,3,5,7,9,11,13,-1,15,-1,17,-1,19,21,23,25,27,-1,-1,29,31,33,35,-1,37,39,41,-1,-1,-1,43,45,-1,-1,47,-1,-1,-1,-1,-1,-1,49,51,-1,-1,53,-1,-1,-1,-1,-1,-1,-1,-1,-1],"loss_changes":[1.8973425E1,5.830453E0,2.5697813E0,4.625126E0,5.0522804E-1,6.862293E0,2.3164406E0,0E0,1.5290594E0,0E0,4.8671627E-1,0E0,1.6287463E0,1.5411294E-1,3.8823128E-1,9.7021365E-1,7.334223E-1,0E0,0E0,2.7323604E-1,2.2893134E-1,2.8384954E-1,1.4257503E-1,0E0,1.1069107E-1,3.1225967E-1,3.6138117E-1,0E0,0E0,0E0,1.6212392E-1,1.18902445E-1,0E0,0E0,1.1314048E-1,0E0,0E0,0E0,0E0,0E0,0E0,4.3227667E-1,1.2777284E-1,0E0,0E0,1.08977735E-1,0E0,0E0,0E0,0E0,0E0,0E0,0E0,0E0,0E0],"parents":[2147483647,0,0,1,1,2,2,3,3,4,4,5,5,6,6,8,8,10,10,12,12,13,13,14,14,15,15,16,16,19,19,20,20,21,21,22,22,24,24,25,25,26,26,30,30,31,31,34,34,41,41,42,42,45,45],"right_children":[2,4,6,8,10,12,14,-1,16,-1,18,-1,20,22,24,26,28,-1,-1,30,32,34,36,-1,38,40,42,-1,-1,-1,44,46,-1,-1,48,-1,-1,-1,-1,-1,-1,50,52,-1,-1,54,-1,-1,-1,-1,-1,-1,-1,-1,-1],"split_conditions":[1.28E2,8E0,2.56E2,5E1,5E1,5E1,1E0,-3.665651E-2,6.4E1,-3.3936027E-2,6.4E1,-3.833386E-2,8E0,5E0,4E0,1E0,4E0,-2.3321701E-2,-1.453276E-2,1.6E1,1E0,3E0,1.6E1,3.768336E-3,3.2E1,4E0,2.56E2,7.281983E-3,-1.4407799E-3,6.858423E-3,1E2,4E0,1.9484028E-3,7.1796863E-3,6E2,4.2616506E-3,1.1270936E-2,1.7549738E-2,1.20217195E-2,-6.1693215E-3,-1.597503E-2,1.6E1,1.6E1,4.2786123E-3,1.672437E-2,2.56E2,1.2594898E-3,2.2481846E-4,7.7005774E-3,-1.4166367E-2,-0E0,4.885185E-3,-1.5543464E-3,-1.587713E-3,-9.536065E-3],"split_indices":[3,4,3,1,1,1,6,0,3,0,3,0,4,5,4,6,4,0,0,0,6,5,0,0,0,4,1,0,0,0,1,5,0,0,1,0,0,0,0,0,0,0,0,0,0,1,0,0,0,0,0,0,0,0,0],"split_type":[0,0,0,0,0,0,0,0,0,0,0,0,0,0,0,0,0,0,0,0,0,0,0,0,0,0,0,0,0,0,0,0,0,0,0,0,0,0,0,0,0,0,0,0,0,0,0,0,0,0,0,0,0,0,0],"sum_hessian":[6.806329E2,3.0934583E2,3.7128705E2,1.9868799E2,1.1065785E2,1.2524387E2,2.4604317E2,9.374552E0,1.8931343E2,5.816529E0,1.04841324E2,8.926707E0,1.1631717E2,1.262637E2,1.1977947E2,9.190807E1,9.7405365E1,2.9459112E1,7.538221E1,5.614984E1,6.0167328E1,8.70865E1,3.91772E1,8.545049E0,1.1123442E2,4.2976414E1,4.8931664E1,3.8898815E1,5.8506546E1,2.8764818E1,2.7385023E1,2.6944708E1,3.3222622E1,4.090827E1,4.6178234E1,1.8364208E1,2.0812992E1,8.0584625E1,3.0649796E1,1.7584236E1,2.5392178E1,2.1433907E1,2.7497755E1,5.2016697E0,2.2183353E1,2.0879278E1,6.065428E0,4.110342E1,5.0748105E0,9.331358E0,1.2102549E1,1.4679926E1,1.2817828E1,1.086456E1,1.0014719E1],"tree_param":{"num_deleted":"0","num_feature":"7","num_nodes":"55","size_leaf_vector":"1"}},{"base_weights":[-7.950373E-3,-1.771506E-1,1.3187696E-1,9.05919E-4,-2.3385772E-1,4.268946E-2,1.826058E-1,-1.0754387E-1,9.333806E-2,-3.1938368E-1,-1.676357E-1,1.7908452E-1,-8.61174E-2,5.4911985E-3,1.2452093E-2,-6.991219E-3,-0E0,9.878323E-3,1.3833777E-3,-1.3729331E-2,-2.0166686E-2,-1.3993779E-2,-1.11600265E-1,8.01033E-2,2.1783519E-1,-7.40228E-3,-3.3817902E-2,-1.0871451E-3,-8.769329E-3,6.5205856E-3,-1.1756362E-3,8.668305E-3,1.6071117E-2,-6.5813893E-3,5.8730436E-4],"categories":[],"categories_nodes":[],"categories_segments":[],"categories_sizes":[],"default_left":[0,0,0,0,0,0,0,0,0,0,0,0,0,0,0,0,0,0,0,0,0,0,0,0,0,0,0,0,0,0,0,0,0,0,0],"id":10,"left_children":[1,3,5,7,9,11,13,15,17,19,21,23,25,-1,-1,-1,-1,-1,-1,-1,-1,-1,27,29,31,-1,33,-1,-1,-1,-1,-1,-1,-1,-1],"loss_changes":[1.5934445E1,3.102744E0,1.6363091E0,7.5275755E-1,1.2102041E0,2.406623E0,1.0672174E0,1.080938E-1,2.5339577E-1,1.951294E-1,7.684221E-1,2.080183E-1,2.0360965E-1,0E0,0E0,0E0,0E0,0E0,0E0,0E0,0E0,0E0,4.9928117E-1,1.2338889E-1,1.0908437E-1,0E0,1.9240521E-1,0E0,0E0,0E0,0E0,0E0,0E0,0E0,0E0],"parents":[2147483647,0,0,1,1,2,2,3,3,4,4,5,5,6,6,7,7,8,8,9,9,10,10,11,11,12,12,22,22,23,23,24,24,26,26],"right_children":[2,4,6,8,10,12,14,16,18,20,22,24,26,-1,-1,-1,-1,-1,-1,-1,-1,-1,28,30,32,-1,34,-1,-1,-1,-1,-1,-1,-1,-1],"split_conditions":[1.28E2,4E0,2.56E2,6.4E1,6.4E1,8E0,1E0,3.2E1,7.168E3,8E0,1E0,1E0,1E0,5.4911985E-3,1.2452093E-2,-6.991219E-3,-0E0,9.878323E-3,1.3833777E-3,-1.3729331E-2,-2.0166686E-2,-1.3993779E-2,8E0,4E0,3.2E1,-7.40228E-3,7.168E3,-1.0871451E-3,-8.769329E-3,6.5205856E-3,-1.1756362E-3,8.668305E-3,1.6071117E-2,-6.5813893E-3,5.8730436E-4],"split_indices":[3,4,3,3,3,4,6,0,2,4,6,6,6,0,0,0,0,0,0,0,0,0,4,4,0,0,2,0,0,0,0,0,0,0,0],"split_type":[0,0,0,0,0,0,0,0,0,0,0,0,0,0,0,0,0,0,0,0,0,0,0,0,0,0,0,0,0,0,0,0,0,0,0],"sum_hessian":[6.7133093E2,3.0396344E2,3.6736746E2,7.323403E1,2.3072942E2,1.3457718E2,2.327903E2,3.3124268E1,4.0109768E1,9.83618E1,1.3236761E2,6.555076E1,6.902642E1,1.1307403E2,1.1971626E2,2.4715717E1,8.40855E0,1.4138599E1,2.5971169E1,6.769871E1,3.066309E1,4.2153755E1,9.021386E1,2.0031599E1,4.5519157E1,2.9890308E1,3.9136112E1,3.8660473E1,5.1553383E1,1.396009E1,6.0715094E0,3.4393368E1,1.112579E1,1.2534596E1,2.6601517E1],"tree_param":{"num_deleted":"0","num_feature":"7","num_nodes":"35","size_leaf_vector":"1"}},{"base_weights":[-2.55667E-3,5.0456032E-2,-7.685285E-2,-1.2040307E-1,8.444511E-2,1.15531206E-1,-1.22573435E-1,-2.9083354E-2,3.7774805E-2,1.663296E-1,2.5479587E-2,-8.772963E-3,1.1036614E-2,-2.0412455E-1,-6.78441E-2,1.7306434E-1,-6.223002E-3,2.7357122E-1,1.1445526E-1,-1.8465158E-2,1.23889655E-1,-4.8172562E-3,8.520957E-3,-1.6471058E-2,-1.7329329E-1,-1.5583234E-1,-2.4694413E-2,1.7179005E-3,2.5739038E-1,1.0905041E-2,2.4503175E-2,2.2761503E-1,5.8153413E-2,-7.116014E-2,5.6292666E-3,-2.6843073E-2,1.2722251E-2,-3.9240263E-2,-9.92447E-3,-6.65722E-2,-2.2953424E-1,-3.2564893E-3,1.9604659E-4,1.8687984E-2,7.1348385E-3,4.834093E-3,2.2118708E-2,5.412021E-3,1.4230974E-2,-1.6945341E-1,9.632553E-4,3.3792228E-2,-9.720013E-2,-8.921274E-2,3.0414672E-3,2.7403047E-3,-6.5846154E-3,-6.786221E-3,-0E0,-2.0227E-3,-1.605971E-2,-5.9647183E-3,4.462337E-2,-0E0,-1.20475525E-2,8.375011E-2,-9.141981E-3,3.0732376E-3,-9.144012E-3,-1.0482488E-2,2.6461056E-3,-4.879686E-3,4.1171354E-3,1.1886534E-1,-3.621159E-2,8.328846E-3,9.468527E-3,2.6266444E-3,-5.6059323E-2,-1.2039784E-3,1.0323681E-2,2.4504298E-3,-8.738769E-3,-5.1555163E-3,8.72748E-2,-1.19133714E-4,-9.1031715E-3,8.383217E-3,-6.7207357E-4],"categories":[],"categories_nodes":[],"categories_segments":[],"categories_sizes":[],"default_left":[0,0,0,0,0,0,0,0,0,0,0,0,0,0,0,0,0,0,0,0,0,0,0,0,0,0,0,0,0,0,0,0,0,0,0,0,0,0,0,0,0,0,0,0,0,0,0,0,0,0,0,0,0,0,0,0,0,0,0,0,0,0,0,0,0,0,0,0,0,0,0,0,0,0,0,0,0,0,0,0,0,0,0,0,0,0,0,0,0],"id":11,"left_children":[1,3,5,7,9,11,13,-1,15,17,19,21,-1,23,25,27,-1,29,31,33,35,-1,-1,-1,37,39,41,-1,43,-1,-1,45,47,49,51,53,-1,55,-1,57,59,-1,-1,-1,-1,-1,-1,-1,61,63,-1,65,67,69,-1,-1,-1,-1,71,-1,-1,-1,73,-1,-1,75,77,-1,-1,-1,-1,-1,-1,79,81,-1,83,-1,85,-1,-1,-1,-1,-1,87,-1,-1,-1,-1],"loss_changes":[2.6408193E0,2.2722702E0,2.4750075E0,4.793923E0,1.5529721E0,7.2668266E-1,9.716215E-1,0E0,1.1002347E0,6.8529344E-1,8.418415E-1,4.042584E-1,0E0,2.3987722E-1,5.020559E-1,2.828446E-1,0E0,3.3774328E-1,5.5622685E-1,1.7542145E-1,1.2104981E0,0E0,0E0,0E0,2.2137594E-1,2.4758339E-1,1.15773134E-1,0E0,1.1468232E-1,0E0,0E0,7.540188E-1,1.2836035E-1,4.0055913E-1,2.5954673E-1,1.6356513E-1,0E0,1.3422239E-1,0E0,1.00774854E-1,3.551618E-1,0E0,0E0,0E0,0E0,0E0,0E0,0E0,1.4655018E-1,2.4029523E-1,0E0,1.6413563E-1,2.8154242E-1,3.2920015E-1,0E0,0E0,0E0,0E0,1.0728102E-1,0E0,0E0,0E0,1.9972137E-1,0E0,0E0,1.9474731E-1,1.1590928E-1,0E0,0E0,0E0,0E0,0E0,0E0,2.3777956E-1,1.9887352E-1,0E0,1.8284664E-1,0E0,1.4011504E-1,0E0,0E0,0E0,0E0,0E0,1.2220037E-1,0E0,0E0,0E0,0E0],"parents":[2147483647,0,0,1,1,2,2,3,3,4,4,5,5,6,6,8,8,9,9,10,10,11,11,13,13,14,14,15,15,17,17,18,18,19,19,20,20,24,24,25,25,26,26,28,28,31,31,32,32,33,33,34,34,35,35,37,37,39,39,40,40,48,48,49,49,51,51,52,52,53,53,58,58,62,62,65,65,66,66,73,73,74,74,76,76,78,78,84,84],"right_children":[2,4,6,8,10,12,14,-1,16,18,20,22,-1,24,26,28,-1,30,32,34,36,-1,-1,-1,38,40,42,-1,44,-1,-1,46,48,50,52,54,-1,56,-1,58,60,-1,-1,-1,-1,-1,-1,-1,62,64,-1,66,68,70,-1,-1,-1,-1,72,-1,-1,-1,74,-1,-1,76,78,-1,-1,-1,-1,-1,-1,80,82,-1,84,-1,86,-1,-1,-1,-1,-1,88,-1,-1,-1,-1],"split_conditions":[8E0,5E1,5E1,4E0,4E0,1.6E1,1E0,-2.9083354E-2,1.6E1,3E0,5E0,5E0,1.1036614E-2,3E0,7.168E3,5E0,-6.223002E-3,1E0,7.168E3,1E0,1E0,-4.8172562E-3,8.520957E-3,-1.6471058E-2,1E2,2.56E2,8.192E3,1.7179005E-3,7.168E3,1.0905041E-2,2.4503175E-2,1E0,8.192E3,3E0,4E0,8.192E3,1.2722251E-2,4E0,-9.92447E-3,3E0,3E0,-3.2564893E-3,1.9604659E-4,1.8687984E-2,7.1348385E-3,4.834093E-3,2.2118708E-2,5.412021E-3,1E2,8E0,9.632553E-4,2.56E2,8E0,5.12E2,3.0414672E-3,2.7403047E-3,-6.5846154E-3,-6.786221E-3,2E2,-2.0227E-3,-1.605971E-2,-5.9647183E-3,5E0,-0E0,-1.20475525E-2,3E0,7.168E3,3.0732376E-3,-9.144012E-3,-1.0482488E-2,2.6461056E-3,-4.879686E-3,4.1171354E-3,1E0,3.2E1,8.328846E-3,7.168E3,2.6266444E-3,3.2E1,-1.2039784E-3,1.0323681E-2,2.4504298E-3,-8.738769E-3,-5.1555163E-3,2E2,-1.19133714E-4,-9.1031715E-3,8.383217E-3,-6.7207357E-4],"split_indices":[4,1,1,4,4,0,6,0,0,5,5,5,0,5,2,5,0,6,2,6,6,0,0,0,1,1,2,0,2,0,0,6,2,5,5,2,0,5,0,5,5,0,0,0,0,0,0,0,1,0,0,1,0,1,0,0,0,0,1,0,0,0,5,0,0,5,2,0,0,0,0,0,0,6,0,0,2,0,0,0,0,0,0,0,1,0,0,0,0],"split_type":[0,0,0,0,0,0,0,0,0,0,0,0,0,0,0,0,0,0,0,0,0,0,0,0,0,0,0,0,0,0,0,0,0,0,0,0,0,0,0,0,0,0,0,0,0,0,0,0,0,0,0,0,0,0,0,0,0,0,0,0,0,0,0,0,0,0,0,0,0,0,0,0,0,0,0,0,0,0,0,0,0,0,0,0,0,0,0,0,0],"sum_hessian":[6.6783527E2,3.8914368E2,2.7869156E2,6.365799E1,3.254857E2,5.280086E1,2.2589069E2,1.5733189E1,4.79248E1,1.3478928E2,1.9069643E2,2.4187403E1,2.861346E1,8.888621E1,1.3700449E2,2.6432264E1,2.1492537E1,4.192168E1,9.286759E1,1.316878E2,5.9008617E1,1.6932697E1,7.254705E0,1.4999777E1,7.388643E1,4.3458202E1,9.354629E1,1.0974246E1,1.5458019E1,3.533688E1,6.5848002E0,2.9253256E1,6.3614334E1,4.2009388E1,8.967842E1,2.7401102E1,3.1607515E1,1.2722747E1,6.116368E1,2.112901E1,2.2329191E1,3.968597E1,5.3860313E1,6.1189814E0,9.339038E0,1.9363592E1,9.889664E0,2.7973558E1,3.5640778E1,2.0240097E1,2.1769293E1,7.168826E1,1.7990154E1,1.6667194E1,1.0733909E1,5.972651E0,6.750096E0,9.794537E0,1.1334473E1,8.117135E0,1.4212055E1,5.455826E0,3.0184952E1,6.59609E0,1.3644007E1,3.377105E1,3.7917217E1,5.998132E0,1.1992022E1,9.145969E0,7.5212255E0,5.1471214E0,6.187351E0,1.6133728E1,1.4051224E1,1.4743143E1,1.9027905E1,1.5409572E1,2.2507645E1,5.9724903E0,1.0161238E1,8.65364E0,5.397584E0,7.118131E0,1.1909774E1,1.7054928E1,5.452716E0,6.8057446E0,5.104029E0],"tree_param":{"num_deleted":"0","num_feature":"7","num_nodes":"89","size_leaf_vector":"1"}},{"base_weights":[-2.0224096E-3,-1.9865054E-1,1.611639E-1,-3.715267E-2,-1.658839E-1,5.7156023E-2,2.1835408E-1,-3.0920306E-1,-6.4909704E-2,-3.702509E-2,1.1854427E-1,1.5609269E-1,1.3708035E-2,-9.553022E-3,-3.4647873E-1,2.6594691E-2,-1.8794881E-1,2.2967665E-1,2.9767226E-4,1.16916105E-1,1.9233775E-1,-4.1741413E-1,-2.9389414E-1,5.4419874E-3,-1.2333781E-3,-3.0129746E-1,-1.2644263E-1,1.2326197E-1,1.3883467E-2,-1.2069536E-1,1.0317302E-2,1.4577374E-2,5.784569E-3,-1.7285606E-2,-2.898022E-2,-1.6721923E-2,-1.835488E-1,-2.2558704E-2,-1.886627E-1,-3.2683052E-3,-8.816718E-3,1.4719359E-2,8.3653367E-4,-1.79895E-2,2.2819517E-3,-1.341919E-2,-6.6757214E-4,-2.7369733E-3,-1.5825419E-2],"categories":[],"categories_nodes":[],"categories_segments":[],"categories_sizes":[],"default_left":[0,0,0,0,0,0,0,0,0,0,0,0,0,0,0,0,0,0,0,0,0,0,0,0,0,0,0,0,0,0,0,0,0,0,0,0,0,0,0,0,0,0,0,0,0,0,0,0,0],"id":12,"left_children":[1,3,5,-1,7,9,11,13,15,-1,17,19,-1,-1,21,23,25,27,-1,29,31,33,35,-1,-1,37,39,41,-1,43,-1,-1,-1,-1,-1,-1,45,-1,47,-1,-1,-1,-1,-1,-1,-1,-1,-1,-1],"loss_changes":[2.1226425E1,5.1416388E0,2.1082935E0,0E0,4.061951E0,6.396743E0,7.2049046E-1,3.9522266E-1,1.920177E0,0E0,1.4989928E0,1.0683656E-1,0E0,0E0,1.3091087E-1,4.206658E-1,4.247899E-1,2.362938E-1,0E0,1.2682899E0,3.4943318E-1,1.0099077E-1,1.292181E-1,0E0,0E0,2.5973105E-1,1.1457032E-1,3.5317314E-1,0E0,6.927216E-1,0E0,0E0,0E0,0E0,0E0,0E0,2.2002423E-1,0E0,2.1823698E-1,0E0,0E0,0E0,0E0,0E0,0E0,0E0,0E0,0E0,0E0],"parents":[2147483647,0,0,1,1,2,2,4,4,5,5,6,6,7,7,8,8,10,10,11,11,14,14,15,15,16,16,17,17,19,19,20,20,21,21,22,22,25,25,26,26,27,27,29,29,36,36,38,38],"right_children":[2,4,6,-1,8,10,12,14,16,-1,18,20,-1,-1,22,24,26,28,-1,30,32,34,36,-1,-1,38,40,42,-1,44,-1,-1,-1,-1,-1,-1,46,-1,48,-1,-1,-1,-1,-1,-1,-1,-1,-1,-1],"split_conditions":[1.28E2,5E1,2.56E2,-3.715267E-2,6.4E1,5E1,1E0,4E0,8E0,-3.702509E-2,8E0,8E0,1.3708035E-2,-9.553022E-3,1E0,4E0,1E0,1E0,2.9767226E-4,5E1,5E1,8E0,4E0,5.4419874E-3,-1.2333781E-3,4E0,2.56E2,2E2,1.3883467E-2,4E0,1.0317302E-2,1.4577374E-2,5.784569E-3,-1.7285606E-2,-2.898022E-2,-1.6721923E-2,5.12E2,-2.2558704E-2,2.56E2,-3.2683052E-3,-8.816718E-3,1.4719359E-2,8.3653367E-4,-1.79895E-2,2.2819517E-3,-1.341919E-2,-6.6757214E-4,-2.7369733E-3,-1.5825419E-2],"split_indices":[3,1,3,0,3,1,6,4,4,0,4,4,0,0,6,4,6,6,0,1,1,4,5,0,0,5,1,1,0,4,0,0,0,0,0,0,1,0,1,0,0,0,0,0,0,0,0,0,0],"split_type":[0,0,0,0,0,0,0,0,0,0,0,0,0,0,0,0,0,0,0,0,0,0,0,0,0,0,0,0,0,0,0,0,0,0,0,0,0,0,0,0,0,0,0,0,0,0,0,0,0],"sum_hessian":[6.594123E2,2.99242E2,3.6017032E2,1.5584449E1,2.8365756E2,1.291117E2,2.3105861E2,1.1598294E2,1.676746E2,8.319493E0,1.20792206E2,1.1185503E2,1.1920358E2,2.9930054E1,8.605289E1,9.614357E1,7.153104E1,5.9819496E1,6.097271E1,5.7110317E1,5.4744705E1,3.2871017E1,5.318187E1,3.723361E1,5.8909966E1,2.3218174E1,4.8312862E1,2.0349766E1,3.946973E1,1.5215527E1,4.189479E1,2.2069649E1,3.2675056E1,2.5393148E1,7.4778676E0,3.674393E1,1.643794E1,8.291582E0,1.4926592E1,2.3661455E1,2.465141E1,6.771068E0,1.3578697E1,6.0119267E0,9.2036E0,1.0192854E1,6.245087E0,8.369541E0,6.557051E0],"tree_param":{"num_deleted":"0","num_feature":"7","num_nodes":"49","size_leaf_vector":"1"}},{"base_weights":[-0E0,-1.745514E-1,1.4588681E-1,-3.630362E-2,-1.4479761E-1,4.8835434E-2,1.9301084E-1,-6.8820275E-2,-2.8100678E-1,-3.5668913E-2,1.0394725E-1,5.687771E-3,2.6377952E-1,-1.9554394E-1,4.3878403E-2,-4.7141773E-1,-2.0111386E-1,2.3369429E-1,-3.1833928E-2,2.1347032E-1,3.028859E-1,-9.3322754E-2,-1.2744553E-2,1.0659136E-1,-0E0,-1.22025525E-2,-2.5889078E-2,-1.6302777E-2,-7.0995907E-3,2.0979322E-3,1.2654531E-2,-5.22387E-3,2.9141558E-2,1.6048722E-1,1.4155447E-2,4.1376868E-1,7.6382146E-3,-1.6032185E-2,-1.7086271E-3,3.0226177E-3,1.5622452E-2,4.664061E-3,-1.8492067E-3,1.1580892E-2,2.8232026E-3,2.6349908E-2,1.6028604E-2],"categories":[],"categories_nodes":[],"categories_segments":[],"categories_sizes":[],"default_left":[0,0,0,0,0,0,0,0,0,0,0,0,0,0,0,0,0,0,0,0,0,0,0,0,0,0,0,0,0,0,0,0,0,0,0,0,0,0,0,0,0,0,0,0,0,0,0],"id":13,"left_children":[1,3,5,-1,7,9,11,13,15,-1,17,-1,19,21,23,25,27,29,31,33,35,37,-1,39,-1,-1,-1,-1,-1,-1,-1,-1,41,43,-1,45,-1,-1,-1,-1,-1,-1,-1,-1,-1,-1,-1],"loss_changes":[1.7363697E1,4.904395E0,1.6641746E0,0E0,3.010027E0,5.195546E0,1.3280344E0,2.7640347E0,1.4387598E0,0E0,2.072013E0,0E0,1.3955498E-1,4.9295354E-1,2.7537507E-1,1.1358023E-1,4.7008276E-1,1.8240976E-1,2.6397675E-1,1.3667989E-1,1.0397286E0,4.3214428E-1,0E0,3.3812734E-1,0E0,0E0,0E0,0E0,0E0,0E0,0E0,0E0,1.4113173E-1,2.391612E-1,0E0,1.588993E-1,0E0,0E0,0E0,0E0,0E0,0E0,0E0,0E0,0E0,0E0,0E0],"parents":[2147483647,0,0,1,1,2,2,4,4,5,5,6,6,7,7,8,8,10,10,12,12,13,13,14,14,15,15,16,16,17,17,18,18,19,19,20,20,21,21,23,23,32,32,33,33,35,35],"right_children":[2,4,6,-1,8,10,12,14,16,-1,18,-1,20,22,24,26,28,30,32,34,36,38,-1,40,-1,-1,-1,-1,-1,-1,-1,-1,42,44,-1,46,-1,-1,-1,-1,-1,-1,-1,-1,-1,-1,-1],"split_conditions":[1.28E2,5E1,2.56E2,-3.630362E-2,8E0,5E1,1E0,6.4E1,6.4E1,-3.5668913E-2,8E0,5.687771E-3,5E1,4E0,4E0,1E2,1E0,1E2,1E0,8E0,8E0,3E0,-1.2744553E-2,1E0,-0E0,-1.22025525E-2,-2.5889078E-2,-1.6302777E-2,-7.0995907E-3,2.0979322E-3,1.2654531E-2,-5.22387E-3,5.12E2,1.6E1,1.4155447E-2,4E0,7.6382146E-3,-1.6032185E-2,-1.7086271E-3,3.0226177E-3,1.5622452E-2,4.664061E-3,-1.8492067E-3,1.1580892E-2,2.8232026E-3,2.6349908E-2,1.6028604E-2],"split_indices":[3,1,3,0,4,1,6,3,3,0,4,0,1,4,4,1,6,1,6,4,4,5,0,6,0,0,0,0,0,0,0,0,1,0,0,5,0,0,0,0,0,0,0,0,0,0,0],"split_type":[0,0,0,0,0,0,0,0,0,0,0,0,0,0,0,0,0,0,0,0,0,0,0,0,0,0,0,0,0,0,0,0,0,0,0,0,0,0,0,0,0,0,0,0,0,0,0],"sum_hessian":[6.798093E2,3.0958298E2,3.7022632E2,1.4476707E1,2.951063E2,1.2236843E2,2.478579E2,1.9087553E2,1.0423075E2,7.3234963E0,1.1504494E2,1.18814896E2,1.29043E2,8.9918816E1,1.0095671E2,2.8988766E1,7.524198E1,5.8837532E1,5.6207405E1,6.0380775E1,6.8662224E1,3.459276E1,5.532606E1,4.051431E1,6.0442406E1,6.3363204E0,2.2652447E1,2.217453E1,5.306745E1,6.169546E0,5.2667984E1,2.6072441E1,3.0134966E1,3.6983326E1,2.3397448E1,3.8099113E1,3.056311E1,5.8807855E0,2.8711973E1,3.4550022E1,5.9642844E0,1.5856402E1,1.42785635E1,2.0664858E1,1.631847E1,1.4614948E1,2.3484165E1],"tree_param":{"num_deleted":"0","num_feature":"7","num_nodes":"47","size_leaf_vector":"1"}},{"base_weights":[-3.6125164E-3,-1.7650478E-1,1.3837385E-1,-3.5604306E-2,-1.4822282E-1,3.7712846E-2,1.8894406E-1,-2.2994564E-1,-8.8961095E-2,-3.4898426E-2,8.7670125E-2,5.735001E-3,2.5625885E-1,-1.5935865E-1,-1.2834119E-2,-1.0676523E-1,-3.0079762E-2,-5.4894964E-4,1.4735484E-1,2.0209384E-1,1.529827E-2,-1.9629265E-1,1.3099392E-3,-8.085341E-2,-8.07158E-3,1.222408E-2,-8.447285E-3,5.5791135E-3,1.5814018E-2,5.1066834E-3,2.3353636E-1,-1.3010824E-2,-4.4813803E-3,-5.7589505E-3,-9.657591E-3,-7.809711E-2,6.699666E-2,1.3515174E-2,6.5411828E-3,-8.0921024E-2,2.5924256E-3,2.616957E-4,-8.192114E-3,1.00580626E-4,7.826023E-3,-8.208991E-3,2.8320819E-3],"categories":[],"categories_nodes":[],"categories_segments":[],"categories_sizes":[],"default_left":[0,0,0,0,0,0,0,0,0,0,0,0,0,0,0,0,0,0,0,0,0,0,0,0,0,0,0,0,0,0,0,0,0,0,0,0,0,0,0,0,0,0,0,0,0,0,0],"id":14,"left_children":[1,3,5,-1,7,9,11,13,15,-1,17,-1,19,21,-1,23,25,-1,27,29,-1,31,-1,33,-1,35,-1,-1,-1,-1,37,-1,-1,-1,39,41,43,-1,-1,45,-1,-1,-1,-1,-1,-1,-1],"loss_changes":[1.6648355E1,4.444234E0,1.8637896E0,0E0,1.3624907E0,4.6419992E0,1.1663885E0,1.4671421E-1,1.6308236E-1,0E0,7.17581E-1,0E0,2.3161793E-1,2.7594453E-1,0E0,1.4704216E-1,2.6773262E-1,0E0,3.752619E-1,1.471796E-1,0E0,1.561439E-1,0E0,2.1007591E-1,0E0,1.6737346E-1,0E0,0E0,0E0,0E0,1.0572624E-1,0E0,0E0,0E0,1.465382E-1,1.04102224E-1,1.1048083E-1,0E0,0E0,2.0193914E-1,0E0,0E0,0E0,0E0,0E0,0E0,0E0],"parents":[2147483647,0,0,1,1,2,2,4,4,5,5,6,6,7,7,8,8,10,10,12,12,13,13,15,15,16,16,18,18,19,19,21,21,23,23,25,25,30,30,34,34,35,35,36,36,39,39],"right_children":[2,4,6,-1,8,10,12,14,16,-1,18,-1,20,22,-1,24,26,-1,28,30,-1,32,-1,34,-1,36,-1,-1,-1,-1,38,-1,-1,-1,40,42,44,-1,-1,46,-1,-1,-1,-1,-1,-1,-1],"split_conditions":[1.28E2,5E1,2.56E2,-3.5604306E-2,6.4E1,5E1,1E0,3E0,3.2E1,-3.4898426E-2,1E0,5.735001E-3,5E1,6E2,-1.2834119E-2,1.6E1,5E0,-5.4894964E-4,5E0,3E0,1.529827E-2,1E0,1.3099392E-3,5E0,-8.07158E-3,1E0,-8.447285E-3,5.5791135E-3,1.5814018E-2,5.1066834E-3,8.192E3,-1.3010824E-2,-4.4813803E-3,-5.7589505E-3,2.56E2,3E0,5.12E2,1.3515174E-2,6.5411828E-3,8E0,2.5924256E-3,2.616957E-4,-8.192114E-3,1.00580626E-4,7.826023E-3,-8.208991E-3,2.8320819E-3],"split_indices":[3,1,3,0,3,1,6,5,0,0,6,0,1,1,0,0,5,0,5,5,0,6,0,5,0,6,0,0,0,0,2,0,0,0,1,5,1,0,0,0,0,0,0,0,0,0,0],"split_type":[0,0,0,0,0,0,0,0,0,0,0,0,0,0,0,0,0,0,0,0,0,0,0,0,0,0,0,0,0,0,0,0,0,0,0,0,0,0,0,0,0,0,0,0,0,0,0],"sum_hessian":[6.7603625E2,3.05049E2,3.7098724E2,1.3910426E1,2.9113858E2,1.2529944E2,2.456878E2,1.2045781E2,1.7068077E2,7.0154495E0,1.1828399E2,1.1882295E2,1.2686485E2,3.6031723E1,8.442609E1,1.2912521E2,4.1555553E1,4.4263763E1,7.4020226E1,6.409661E1,6.276824E1,3.0451593E1,5.5801306E0,9.052482E1,3.8600395E1,3.1999228E1,9.556328E0,6.2943497E1,1.1076733E1,1.7114836E1,4.6981773E1,1.7554306E1,1.2897286E1,5.9713047E1,3.0811771E1,1.1229672E1,2.0769554E1,3.2678806E1,1.4302966E1,1.48806505E1,1.5931122E1,5.5797415E0,5.6499314E0,1.32737055E1,7.4958487E0,9.602348E0,5.2783017E0],"tree_param":{"num_deleted":"0","num_feature":"7","num_nodes":"47","size_leaf_vector":"1"}},{"base_weights":[1.0400663E-2,-1.3405411E-1,1.2727189E-1,-3.5000585E-2,-1.04267746E-1,5.975782E-2,1.8217005E-1,-1.8580289E-1,-4.5902416E-2,-6.3889734E-2,1.1036167E-1,1.08781405E-1,2.2224882E-1,-1.4728893E-1,-1.2653703E-2,6.683567E-5,-3.4136032E-3,-1.155328E-2,-4.056853E-3,6.57472E-2,1.766835E-1,-6.099452E-3,1.573957E-1,8.893282E-3,1.2877822E-2,-7.475127E-4,-8.466537E-3,1.3175586E-3,-5.037532E-3,1.1890543E-1,2.7889587E-2,4.9288357E-3,1.2057166E-2,1.3132833E-4,2.0213573E-1,9.419757E-3,9.187491E-4,4.9921884E-3,-4.1172895E-4,8.966092E-4,1.1332202E-2],"categories":[],"categories_nodes":[],"categories_segments":[],"categories_sizes":[],"default_left":[0,0,0,0,0,0,0,0,0,0,0,0,0,0,0,0,0,0,0,0,0,0,0,0,0,0,0,0,0,0,0,0,0,0,0,0,0,0,0,0,0],"id":15,"left_children":[1,3,5,-1,7,9,11,13,15,17,19,21,23,25,-1,-1,-1,-1,27,29,31,-1,33,-1,-1,-1,-1,-1,-1,35,37,-1,-1,-1,39,-1,-1,-1,-1,-1,-1],"loss_changes":[1.1282541E1,4.8794384E0,1.3354578E0,0E0,1.3243914E0,1.063747E0,5.3874445E-1,2.2800112E-1,1.8444297E-1,4.6455863E-1,3.1995082E-1,8.575883E-1,1.1314726E-1,2.0736885E-1,0E0,0E0,0E0,0E0,1.20240085E-1,1.3169825E-1,1.782161E-1,0E0,4.1011322E-1,0E0,0E0,0E0,0E0,0E0,0E0,1.8218514E-1,1.2915915E-1,0E0,0E0,0E0,1.8720329E-1,0E0,0E0,0E0,0E0,0E0,0E0],"parents":[2147483647,0,0,1,1,2,2,4,4,5,5,6,6,7,7,8,8,9,9,10,10,11,11,12,12,13,13,18,18,19,19,20,20,22,22,29,29,30,30,34,34],"right_children":[2,4,6,-1,8,10,12,14,16,18,20,22,24,26,-1,-1,-1,-1,28,30,32,-1,34,-1,-1,-1,-1,-1,-1,36,38,-1,-1,-1,40,-1,-1,-1,-1,-1,-1],"split_conditions":[1.28E2,5E1,1E0,-3.5000585E-2,6.4E1,2.56E2,2.56E2,8.192E3,7.168E3,1E2,8.192E3,1E2,5E1,1E2,-1.2653703E-2,6.683567E-5,-3.4136032E-3,-1.155328E-2,3.2E1,4E0,2E2,-6.099452E-3,3E0,8.893282E-3,1.2877822E-2,-7.475127E-4,-8.466537E-3,1.3175586E-3,-5.037532E-3,7.168E3,5E1,4.9288357E-3,1.2057166E-2,1.3132833E-4,2E2,9.419757E-3,9.187491E-4,4.9921884E-3,-4.1172895E-4,8.966092E-4,1.1332202E-2],"split_indices":[3,1,6,0,3,3,3,2,2,1,2,1,1,1,0,0,0,0,0,5,1,0,5,0,0,0,0,0,0,2,1,0,0,0,1,0,0,0,0,0,0],"split_type":[0,0,0,0,0,0,0,0,0,0,0,0,0,0,0,0,0,0,0,0,0,0,0,0,0,0,0,0,0,0,0,0,0,0,0,0,0,0,0,0,0],"sum_hessian":[6.6632336E2,2.9754733E2,3.6877606E2,1.3584066E1,2.8396326E2,1.6713837E2,2.016377E2,1.1684143E2,1.6712183E2,4.7888046E1,1.1925033E2,7.341537E1,1.2822232E2,7.7275696E1,3.9565735E1,5.257224E1,1.1454958E2,1.142708E1,3.6460964E1,7.338418E1,4.586615E1,1.2154071E1,6.1261295E1,6.0739727E1,6.748259E1,1.1920461E1,6.535524E1,2.7504654E1,8.95631E0,2.8534615E1,4.4849564E1,2.2582842E1,2.3283306E1,1.4476517E1,4.678478E1,1.5767148E1,1.2767467E1,1.532623E1,2.9523335E1,6.176246E0,4.0608532E1],"tree_param":{"num_deleted":"0","num_feature":"7","num_nodes":"41","size_leaf_vector":"1"}},{"base_weights":[-1.0706735E-2,-1.2652588E-1,8.3401E-2,-1.0551889E-2,-3.3497775E-1,1.5051796E-1,7.99775E-3,-3.2436308E-2,1.7401947E-2,-2.3619302E-2,-1.3388457E-2,-1.1372382E-2,2.2436637E-1,-1.2383257E-1,9.606944E-2,1.6406104E-1,-6.598135E-2,-2.308148E-2,1.0330239E-1,1.4345358E-1,2.8670162E-1,-1.064839E-3,-7.4889995E-3,2.1765539E-1,4.397072E-3,4.3220767E-3,2.232759E-1,-1.4267024E-1,9.36535E-3,2.2707836E-1,-2.4484263E-3,1.7836048E-1,3.7451275E-3,3.3847123E-1,1.0333132E-2,7.1050944E-3,2.7116144E-1,-9.175781E-2,5.1972284E-3,8.791828E-3,2.0493528E-2,-1.9533941E-1,-4.5156265E-3,-4.4725467E-3,3.19697E-3,1.3238913E-3,1.3529025E-2,1.0908774E-2,-1.1738556E-3,1.255257E-2,2.0627609E-2,1.7388849E-2,7.751657E-3,-0E0,-6.1355666E-3,-1.3174499E-2,-1.0546288E-1,-8.666354E-3,-0E0],"categories":[],"categories_nodes":[],"categories_segments":[],"categories_sizes":[],"default_left":[0,0,0,0,0,0,0,0,0,0,0,0,0,0,0,0,0,0,0,0,0,0,0,0,0,0,0,0,0,0,0,0,0,0,0,0,0,0,0,0,0,0,0,0,0,0,0,0,0,0,0,0,0,0,0,0,0,0,0],"id":16,"left_children":[1,3,5,7,9,11,13,-1,15,-1,-1,17,19,21,23,25,27,-1,29,31,33,-1,-1,35,37,-1,39,41,43,45,-1,47,-1,49,-1,-1,51,53,-1,-1,-1,55,-1,-1,-1,-1,-1,-1,-1,-1,-1,-1,-1,-1,-1,-1,57,-1,-1],"loss_changes":[7.366903E0,7.293173E0,1.8669584E0,3.5743675E0,7.9748726E-1,2.369502E0,2.06502E0,0E0,2.3292372E0,0E0,0E0,3.2842715E0,5.978217E-1,1.6833556E-1,1.1713834E0,2.6755404E-1,7.11715E-1,0E0,9.7219175E-1,1.0856688E-1,1.8495369E-1,0E0,0E0,1.0440135E-1,6.098851E-1,0E0,2.0451546E-1,1.2063968E-1,3.3282855E-1,2.0874941E-1,0E0,3.386773E-1,0E0,1.0865736E-1,0E0,0E0,1.1651862E-1,1.025317E-1,0E0,0E0,0E0,1.0896349E-1,0E0,0E0,0E0,0E0,0E0,0E0,0E0,0E0,0E0,0E0,0E0,0E0,0E0,0E0,1.12727135E-1,0E0,0E0],"parents":[2147483647,0,0,1,1,2,2,3,3,4,4,5,5,6,6,8,8,11,11,12,12,13,13,14,14,15,15,16,16,18,18,19,19,20,20,23,23,24,24,26,26,27,27,28,28,29,29,31,31,33,33,36,36,37,37,41,41,56,56],"right_children":[2,4,6,8,10,12,14,-1,16,-1,-1,18,20,22,24,26,28,-1,30,32,34,-1,-1,36,38,-1,40,42,44,46,-1,48,-1,50,-1,-1,52,54,-1,-1,-1,56,-1,-1,-1,-1,-1,-1,-1,-1,-1,-1,-1,-1,-1,-1,58,-1,-1],"split_conditions":[1.28E2,8E0,8E0,5E1,1E0,5E1,2.56E2,-3.2436308E-2,4E0,-2.3619302E-2,-1.3388457E-2,4E0,1E0,3E0,5E1,6.4E1,6.4E1,-2.308148E-2,1.6E1,4E0,2.56E2,-1.064839E-3,-7.4889995E-3,1.6E1,1E0,4.3220767E-3,1E0,1E0,1E0,1E0,-2.4484263E-3,6E2,3.7451275E-3,1.6E1,1.0333132E-2,7.1050944E-3,4E0,3E0,5.1972284E-3,8.791828E-3,2.0493528E-2,1.6E1,-4.5156265E-3,-4.4725467E-3,3.19697E-3,1.3238913E-3,1.3529025E-2,1.0908774E-2,-1.1738556E-3,1.255257E-2,2.0627609E-2,1.7388849E-2,7.751657E-3,-0E0,-6.1355666E-3,-1.3174499E-2,5E0,-8.666354E-3,-0E0],"split_indices":[3,4,4,1,6,1,3,0,4,0,0,4,6,5,1,3,3,0,0,4,3,0,0,0,6,0,6,6,6,6,0,1,0,0,0,0,5,5,0,0,0,0,0,0,0,0,0,0,0,0,0,0,0,0,0,0,5,0,0],"split_type":[0,0,0,0,0,0,0,0,0,0,0,0,0,0,0,0,0,0,0,0,0,0,0,0,0,0,0,0,0,0,0,0,0,0,0,0,0,0,0,0,0,0,0,0,0,0,0,0,0,0,0,0,0,0,0,0,0,0,0],"sum_hessian":[6.735312E2,3.0225797E2,3.7127322E2,1.9519173E2,1.0706626E2,1.9520103E2,1.7607217E2,7.4093637E0,1.8778235E2,3.269816E1,7.43681E1,6.099025E1,1.342108E2,6.990028E1,1.0617189E2,6.814933E1,1.19633026E2,1.1943186E1,4.9047062E1,6.0537323E1,7.367347E1,1.5262511E1,5.463777E1,4.457995E1,6.1591938E1,3.12868E1,3.686253E1,5.9503372E1,6.0129654E1,2.7146235E1,2.1900827E1,3.8083958E1,2.2453367E1,4.2017883E1,3.1655584E1,2.0772615E1,2.3807333E1,3.085866E1,3.073328E1,3.1366306E1,5.496224E0,2.734994E1,3.2153435E1,2.051395E1,3.9615704E1,5.534144E0,2.1612091E1,3.21554E1,5.9285564E0,2.1906126E1,2.0111757E1,1.2623264E1,1.1184069E1,7.236275E0,2.3622385E1,1.38236065E1,1.3526334E1,8.130303E0,5.396031E0],"tree_param":{"num_deleted":"0","num_feature":"7","num_nodes":"59","size_leaf_vector":"1"}},{"base_weights":[1.4687056E-2,-1.2444075E-1,1.265424E-1,-3.3893224E-2,-9.706839E-2,2.0167962E-1,4.1134898E-2,-1.1681503E-2,-2.5145543E-1,3.2635476E-2,1.3495724E-2,-1.1499403E-1,1.3666016E-1,9.472666E-2,-8.2874775E-2,-1.9941412E-2,-1.9172063E-1,-2.0685982E-2,1.5587327E-1,-7.0582293E-3,-0E0,1.1203012E-2,3.524096E-3,-2.7337344E-2,9.553881E-3,3.003229E-4,-1.3094538E-1,-1.180445E-1,-1.3275011E-2,1.2763138E-2,-0E0,5.963707E-3,-5.099213E-3,-5.6502265E-3,2.0662886E-3,-2.0892362E-1,-2.61722E-3,-1.01967035E-2,-2.482302E-3,-1.3219776E-2,-2.7468407E-3],"categories":[],"categories_nodes":[],"categories_segments":[],"categories_sizes":[],"default_left":[0,0,0,0,0,0,0,0,0,0,0,0,0,0,0,0,0,0,0,0,0,0,0,0,0,0,0,0,0,0,0,0,0,0,0,0,0,0,0,0,0],"id":17,"left_children":[1,3,5,-1,7,9,11,13,15,17,-1,19,21,23,25,-1,27,-1,29,-1,31,-1,-1,33,-1,-1,35,37,-1,-1,-1,-1,-1,-1,-1,39,-1,-1,-1,-1,-1],"loss_changes":[1.0199851E1,4.276305E0,2.3010569E0,0E0,3.653192E0,2.182252E0,2.5842042E0,1.3803332E0,7.3610735E-1,3.170778E0,0E0,2.0125484E-1,5.771651E-1,8.753415E-1,4.821446E-1,0E0,3.263712E-1,0E0,6.967523E-1,0E0,1.6987929E-1,0E0,0E0,2.0265366E-1,0E0,0E0,4.0419817E-1,1.932531E-1,0E0,0E0,0E0,0E0,0E0,0E0,0E0,2.539363E-1,0E0,0E0,0E0,0E0,0E0],"parents":[2147483647,0,0,1,1,2,2,4,4,5,5,6,6,7,7,8,8,9,9,11,11,12,12,13,13,14,14,16,16,18,18,20,20,23,23,26,26,27,27,35,35],"right_children":[2,4,6,-1,8,10,12,14,16,18,-1,20,22,24,26,-1,28,-1,30,-1,32,-1,-1,34,-1,-1,36,38,-1,-1,-1,-1,-1,-1,-1,40,-1,-1,-1,-1,-1],"split_conditions":[1.28E2,5E1,8E0,-3.3893224E-2,8E0,5E1,2.56E2,4E0,6.4E1,4E0,1.3495724E-2,6E2,5E1,6.4E1,7.168E3,-1.9941412E-2,2.56E2,-2.0685982E-2,1.6E1,-7.0582293E-3,1.6E1,1.1203012E-2,3.524096E-3,2.56E2,9.553881E-3,3.003229E-4,6.4E1,4E0,-1.3275011E-2,1.2763138E-2,-0E0,5.963707E-3,-5.099213E-3,-5.6502265E-3,2.0662886E-3,3.2E1,-2.61722E-3,-1.01967035E-2,-2.482302E-3,-1.3219776E-2,-2.7468407E-3],"split_indices":[3,1,4,0,4,1,3,4,3,4,0,1,1,3,2,0,1,0,0,0,0,0,0,1,0,0,3,5,0,0,0,0,0,0,0,0,0,0,0,0,0],"split_type":[0,0,0,0,0,0,0,0,0,0,0,0,0,0,0,0,0,0,0,0,0,0,0,0,0,0,0,0,0,0,0,0,0,0,0,0,0,0,0,0,0],"sum_hessian":[6.533998E2,2.9075128E2,3.626485E2,1.241065E1,2.7834064E2,1.9157674E2,1.7107178E2,1.8032927E2,9.801138E1,5.593872E1,1.3563802E2,6.4462296E1,1.06609474E2,7.159119E1,1.0873808E2,2.6148708E1,7.186267E1,1.1417422E1,4.45213E1,5.2539436E1,1.1922862E1,4.4259792E1,6.2349686E1,3.1439663E1,4.015152E1,3.774443E1,7.0993645E1,3.793561E1,3.392706E1,2.666705E1,1.785425E1,5.5534763E0,6.369386E0,1.4348471E1,1.7091192E1,3.4167038E1,3.682661E1,1.52908945E1,2.2644718E1,2.4113894E1,1.0053144E1],"tree_param":{"num_deleted":"0","num_feature":"7","num_nodes":"41","size_leaf_vector":"1"}},{"base_weights":[-7.257655E-3,-1.5658025E-1,1.1410902E-1,1.4039664E-2,-2.1603075E-1,7.2280667E-3,1.9591063E-1,-8.820862E-2,1.0007022E-1,-3.27369E-1,-1.5331976E-1,-9.1518246E-2,4.96374E-2,8.5196376E-2,2.653549E-1,-4.215941E-2,-8.482541E-3,7.959834E-3,4.893209E-4,-2.3072624E-1,-2.2472247E-2,-1.3538742E-2,-8.382067E-2,1.0909552E-3,-7.924026E-3,-4.7246015E-4,5.101343E-3,2.0092055E-1,-3.50339E-2,1.8635642E-3,2.7651307E-1,3.185934E-3,-4.0344056E-3,5.416816E-3,-2.5952233E-3,-1.4884586E-2,-6.844848E-3,-3.228301E-2,-6.104258E-3,2.8627127E-1,1.473729E-1,1.9232504E-3,-8.418738E-3,1.0475009E-2,3.0814368E-1,4.6697813E-3,-1.0625596E-1,2.2229722E-2,2.2339707E-3,1.4530112E-2,4.3414794E-3,-4.834483E-3,2.5864996E-3,1.88796E-2,2.298689E-1,-7.822721E-3,-0E0,4.9532E-3,1.4640923E-2],"categories":[],"categories_nodes":[],"categories_segments":[],"categories_sizes":[],"default_left":[0,0,0,0,0,0,0,0,0,0,0,0,0,0,0,0,0,0,0,0,0,0,0,0,0,0,0,0,0,0,0,0,0,0,0,0,0,0,0,0,0,0,0,0,0,0,0,0,0,0,0,0,0,0,0,0,0,0,0],"id":18,"left_children":[1,3,5,7,9,11,13,15,17,19,21,23,25,27,29,31,-1,-1,33,35,-1,-1,37,-1,-1,-1,-1,39,41,-1,43,-1,-1,-1,-1,-1,-1,45,-1,47,49,51,-1,-1,53,-1,55,-1,-1,-1,-1,-1,-1,-1,57,-1,-1,-1,-1],"loss_changes":[1.1896325E1,3.011098E0,3.1401658E0,6.8399394E-1,1.4304218E0,6.635176E-1,1.5130157E0,1.0296705E-1,2.3483074E-1,7.417927E-1,1.1051672E0,3.75497E-1,3.5734233E-1,1.1474814E0,2.7520943E-1,1.06699646E-1,0E0,0E0,1.1019121E-1,2.0312047E-1,0E0,0E0,1.6109884E-1,0E0,0E0,0E0,0E0,1.05169654E-1,2.1429904E-1,0E0,1.3408566E-1,0E0,0E0,0E0,0E0,0E0,0E0,3.96732E-1,0E0,4.7844112E-1,1.8350238E-1,1.5647298E-1,0E0,0E0,2.7166796E-1,0E0,1.4223385E-1,0E0,0E0,0E0,0E0,0E0,0E0,0E0,2.569487E-1,0E0,0E0,0E0,0E0],"parents":[2147483647,0,0,1,1,2,2,3,3,4,4,5,5,6,6,7,7,8,8,9,9,10,10,11,11,12,12,13,13,14,14,15,15,18,18,19,19,22,22,27,27,28,28,30,30,37,37,39,39,40,40,41,41,44,44,46,46,54,54],"right_children":[2,4,6,8,10,12,14,16,18,20,22,24,26,28,30,32,-1,-1,34,36,-1,-1,38,-1,-1,-1,-1,40,42,-1,44,-1,-1,-1,-1,-1,-1,46,-1,48,50,52,-1,-1,54,-1,56,-1,-1,-1,-1,-1,-1,-1,58,-1,-1,-1,-1],"split_conditions":[1.28E2,4E0,1E0,6.4E1,1E0,2.56E2,2.56E2,8.192E3,8.192E3,8E0,6.4E1,8E0,1.6E1,8E0,4E0,8E0,-8.482541E-3,7.959834E-3,8E0,6.4E1,-2.2472247E-2,-1.3538742E-2,8E0,1.0909552E-3,-7.924026E-3,-4.7246015E-4,5.101343E-3,7.168E3,4E0,1.8635642E-3,7.168E3,3.185934E-3,-4.0344056E-3,5.416816E-3,-2.5952233E-3,-1.4884586E-2,-6.844848E-3,7.168E3,-6.104258E-3,4E0,4E0,7.168E3,-8.418738E-3,1.0475009E-2,8E0,4.6697813E-3,4E0,2.2229722E-2,2.2339707E-3,1.4530112E-2,4.3414794E-3,-4.834483E-3,2.5864996E-3,1.88796E-2,3E0,-7.822721E-3,-0E0,4.9532E-3,1.4640923E-2],"split_indices":[3,4,6,3,6,3,3,2,2,4,3,4,0,4,4,0,0,0,0,3,0,0,4,0,0,0,0,2,5,0,2,0,0,0,0,0,0,2,0,4,5,2,0,0,4,0,5,0,0,0,0,0,0,0,5,0,0,0,0],"split_type":[0,0,0,0,0,0,0,0,0,0,0,0,0,0,0,0,0,0,0,0,0,0,0,0,0,0,0,0,0,0,0,0,0,0,0,0,0,0,0,0,0,0,0,0,0,0,0,0,0,0,0,0,0,0,0,0,0,0,0],"sum_hessian":[6.5420886E2,2.9356146E2,3.606474E2,7.5619385E1,2.1794208E2,1.5735724E2,2.0329016E2,3.4010193E1,4.160919E1,7.6430695E1,1.4151138E2,4.622066E1,1.1113658E2,7.9774055E1,1.23516106E2,2.347975E1,1.0530443E1,2.5101954E1,1.650724E1,4.4729378E1,3.1701319E1,5.0994514E1,9.051687E1,1.6861841E1,2.935882E1,5.1718063E1,5.941852E1,4.07306E1,3.9043457E1,6.3811793E0,1.17134926E2,5.3976293E0,1.808212E1,5.6723027E0,1.0834937E1,2.4211376E1,2.0518003E1,4.0468174E1,5.0048695E1,1.3306883E1,2.7423716E1,3.0754942E1,8.288513E0,4.1018204E1,7.611672E1,1.4395716E1,2.6072458E1,7.2811265E0,6.0257564E0,6.528176E0,2.089554E1,9.331113E0,2.142383E1,3.76292E1,3.848752E1,1.7297699E1,8.77476E0,1.3856639E1,2.463088E1],"tree_param":{"num_deleted":"0","num_feature":"7","num_nodes":"59","size_leaf_vector":"1"}},{"base_weights":[-1.2176417E-2,-1.5821622E-1,1.06414266E-1,-3.321158E-2,-1.3413203E-1,3.2159105E-2,1.4405195E-1,-1.1771096E-2,-3.0555313E-3,-3.396106E-2,8.385447E-2,4.311859E-3,1.948055E-1,2.4818828E-2,1.19022794E-1,6.8084435E-3,1.2433052E-2,5.96942E-3,-1.420277E-3,1.5421757E-1,6.5642126E-2,2.5454846E-3,9.295775E-3,-2.471577E-4,1.3591167E-1,9.770605E-3,-0E0],"categories":[],"categories_nodes":[],"categories_segments":[],"categories_sizes":[],"default_left":[0,0,0,0,0,0,0,0,0,0,0,0,0,0,0,0,0,0,0,0,0,0,0,0,0,0,0],"id":19,"left_children":[1,3,5,-1,7,9,11,-1,-1,-1,13,-1,15,17,19,-1,-1,-1,-1,21,23,-1,-1,-1,25,-1,-1],"loss_changes":[1.1451561E1,3.4448147E0,9.962206E-1,0E0,2.0601778E0,4.5855355E0,6.612582E-1,0E0,0E0,0E0,2.2626203E-1,0E0,3.2694054E-1,2.4466552E-1,1.03541374E-1,0E0,0E0,0E0,0E0,1.0322183E-1,1.7030439E-1,0E0,0E0,0E0,1.250501E-1,0E0,0E0],"parents":[2147483647,0,0,1,1,2,2,4,4,5,5,6,6,10,10,12,12,13,13,14,14,19,19,20,20,24,24],"right_children":[2,4,6,-1,8,10,12,-1,-1,-1,14,-1,16,18,20,-1,-1,-1,-1,22,24,-1,-1,-1,26,-1,-1],"split_conditions":[1.28E2,5E1,2.56E2,-3.321158E-2,6.4E1,5E1,1E0,-1.1771096E-2,-3.0555313E-3,-3.396106E-2,1E0,4.311859E-3,5E1,2E2,5.12E2,6.8084435E-3,1.2433052E-2,5.96942E-3,-1.420277E-3,8E0,6E2,2.5454846E-3,9.295775E-3,-2.471577E-4,3.2E1,9.770605E-3,-0E0],"split_indices":[3,1,3,0,3,1,6,0,0,0,6,0,1,1,1,0,0,0,0,0,1,0,0,0,0,0,0],"split_type":[0,0,0,0,0,0,0,0,0,0,0,0,0,0,0,0,0,0,0,0,0,0,0,0,0,0,0],"sum_hessian":[6.589441E2,2.955253E2,3.6341876E2,1.203046E1,2.8349484E2,1.2376162E2,2.3965715E2,1.1725453E2,1.662403E2,7.4309473E0,1.1633067E2,1.14217865E2,1.2543929E2,4.5127003E1,7.120367E1,6.263214E1,6.2807156E1,1.6480326E1,2.8646679E1,4.064402E1,3.0559645E1,1.0895369E1,2.9748653E1,1.4999408E1,1.5560238E1,1.0285599E1,5.2746396E0],"tree_param":{"num_deleted":"0","num_feature":"7","num_nodes":"27","size_leaf_vector":"1"}},{"base_weights":[-7.766582E-4,-1.2620977E-1,9.956265E-2,1.2111797E-1,-2.045215E-1,2.5823219E-2,1.5688458E-1,-3.6807214E-3,1.6165338E-1,-3.172673E-2,-1.8326095E-1,-8.088107E-2,6.9876686E-2,2.0685023E-1,9.2576824E-2,1.10371016E-1,2.6796034E-1,-1.04202226E-1,-2.6516214E-1,-1.0176111E-2,-3.3424802E-2,2.0704174E-3,1.0812059E-1,5.0914135E-2,2.9338324E-1,-2.7417893E-2,1.6676228E-1,1.852938E-3,8.290646E-3,8.295326E-3,2.0942483E-2,-1.7822577E-1,-2.2761628E-2,-1.9972736E-2,-2.068114E-1,2.846373E-3,-5.068936E-3,-0E0,1.459368E-1,-2.0233842E-3,9.874456E-2,1.3086182E-2,2.2388784E-2,-5.637424E-3,5.7687255E-4,1.1424314E-2,5.6623183E-3,5.73511E-3,-2.930853E-3,-7.464988E-2,-1.1362261E-2,-1.4164566E-1,1.7391186E-3,-1.6556274E-2,-1.4856037E-1,1.0669838E-2,7.997567E-2,6.984081E-3,-0E0,-7.7413255E-3,-0E0,-1.0930512E-2,-1.2242321E-4,-2.3332977E-1,-4.8419293E-3,1.1810664E-2,-1.328125E-3,-3.2779935E-3,-1.4909838E-2],"categories":[],"categories_nodes":[],"categories_segments":[],"categories_sizes":[],"default_left":[0,0,0,0,0,0,0,0,0,0,0,0,0,0,0,0,0,0,0,0,0,0,0,0,0,0,0,0,0,0,0,0,0,0,0,0,0,0,0,0,0,0,0,0,0,0,0,0,0,0,0,0,0,0,0,0,0,0,0,0,0,0,0,0,0,0,0,0,0],"id":20,"left_children":[1,3,5,7,9,11,13,-1,15,-1,17,19,21,23,25,27,29,31,33,-1,35,-1,37,39,41,43,45,47,-1,-1,-1,49,51,-1,53,-1,-1,-1,55,-1,57,-1,-1,-1,-1,-1,-1,-1,-1,59,-1,61,-1,-1,63,-1,65,-1,-1,-1,-1,-1,-1,67,-1,-1,-1,-1,-1],"loss_changes":[8.276386E0,5.700348E0,1.5195835E0,5.7867396E-1,1.8398628E0,7.637369E-1,6.072955E-1,0E0,2.5558007E-1,0E0,1.3213248E0,2.4301279E-1,1.0633129E-1,1.4791098E0,8.3753103E-1,2.3742825E-1,1.4836168E-1,6.460787E-1,6.7061615E-1,0E0,2.292069E-1,0E0,2.0011777E-1,1.9360813E-1,1.648984E-1,1.2940751E-1,1.2992537E-1,1.21004164E-1,0E0,0E0,0E0,2.4453878E-1,3.899981E-1,0E0,4.459026E-1,0E0,0E0,0E0,1.1062294E-1,0E0,1.02110416E-1,0E0,0E0,0E0,0E0,0E0,0E0,0E0,0E0,1.179914E-1,0E0,1.7677015E-1,0E0,0E0,1.7863512E-1,0E0,3.633349E-1,0E0,0E0,0E0,0E0,0E0,0E0,1.4870799E-1,0E0,0E0,0E0,0E0,0E0],"parents":[2147483647,0,0,1,1,2,2,3,3,4,4,5,5,6,6,8,8,10,10,11,11,12,12,13,13,14,14,15,15,16,16,17,17,18,18,20,20,22,22,23,23,24,24,25,25,26,26,27,27,31,31,32,32,34,34,38,38,40,40,49,49,51,51,54,54,56,56,63,63],"right_children":[2,4,6,8,10,12,14,-1,16,-1,18,20,22,24,26,28,30,32,34,-1,36,-1,38,40,42,44,46,48,-1,-1,-1,50,52,-1,54,-1,-1,-1,56,-1,58,-1,-1,-1,-1,-1,-1,-1,-1,60,-1,62,-1,-1,64,-1,66,-1,-1,-1,-1,-1,-1,68,-1,-1,-1,-1,-1],"split_conditions":[1.28E2,4E0,1E0,1E2,5E1,2.56E2,8E0,-3.6807214E-3,1E0,-3.172673E-2,8E0,1E2,8.192E3,5E1,2.56E2,6.4E1,6.4E1,6.4E1,1E0,-1.0176111E-2,8E0,2.0704174E-3,4E0,5E0,6E2,7.168E3,5E1,7.168E3,8.290646E-3,8.295326E-3,2.0942483E-2,7.168E3,1E0,-1.9972736E-2,6.4E1,2.846373E-3,-5.068936E-3,-0E0,1E2,-2.0233842E-3,8.192E3,1.3086182E-2,2.2388784E-2,-5.637424E-3,5.7687255E-4,1.1424314E-2,5.6623183E-3,5.73511E-3,-2.930853E-3,1E0,-1.1362261E-2,8.192E3,1.7391186E-3,-1.6556274E-2,7.168E3,1.0669838E-2,8E0,6.984081E-3,-0E0,-7.7413255E-3,-0E0,-1.0930512E-2,-1.2242321E-4,2.56E2,-4.8419293E-3,1.1810664E-2,-1.328125E-3,-3.2779935E-3,-1.4909838E-2],"split_indices":[3,4,6,1,1,3,4,0,6,0,4,1,2,1,3,3,3,3,6,0,4,0,4,5,1,2,1,2,0,0,0,2,6,0,3,0,0,0,1,0,2,0,0,0,0,0,0,0,0,6,0,2,0,0,2,0,4,0,0,0,0,0,0,1,0,0,0,0,0],"split_type":[0,0,0,0,0,0,0,0,0,0,0,0,0,0,0,0,0,0,0,0,0,0,0,0,0,0,0,0,0,0,0,0,0,0,0,0,0,0,0,0,0,0,0,0,0,0,0,0,0,0,0,0,0,0,0,0,0,0,0,0,0,0,0,0,0,0,0,0,0],"sum_hessian":[6.5538324E2,2.915982E2,3.6378503E2,6.9686745E1,2.2191147E2,1.60505E2,2.0328004E2,1.1441012E1,5.8245735E1,8.874192E0,2.1303726E2,4.599415E1,1.1451086E2,1.1227408E2,9.100597E1,4.1301052E1,1.6944683E1,1.1017718E2,1.0286009E2,1.1326713E1,3.4667435E1,6.8338196E1,4.617266E1,4.1047955E1,7.122613E1,3.4494183E1,5.6511784E1,1.4925007E1,2.6376047E1,1.1755872E1,5.1888103E0,5.6451023E1,5.372615E1,2.8866085E1,7.399401E1,1.4319179E1,2.0348257E1,1.1883664E1,3.4288994E1,1.3437782E1,2.7610172E1,6.1879955E1,9.34617E0,1.1022483E1,2.3471699E1,2.385726E1,3.2654522E1,5.4713073E0,9.453699E0,1.9599993E1,3.6851032E1,1.7613506E1,3.6112644E1,2.1566841E1,5.242717E1,1.5097351E1,1.9191645E1,1.853126E1,9.078914E0,8.711093E0,1.0888901E1,1.0512207E1,7.101299E0,1.7803486E1,3.4623684E1,7.668011E0,1.1523633E1,5.954711E0,1.1848774E1],"tree_param":{"num_deleted":"0","num_feature":"7","num_nodes":"69","size_leaf_vector":"1"}},{"base_weights":[-1.0095921E-2,-1.4663875E-1,1.0175048E-1,-3.2283373E-2,-1.24997854E-1,1.4904083E-1,5.1126193E-2,-4.6504468E-2,-2.6418424E-1,-8.261307E-3,2.1955045E-1,-3.539034E-3,1.2469361E-1,-1.5136594E-1,4.9091958E-2,-1.9262189E-2,-2.0915344E-1,-1.7818945E-2,7.71983E-2,1.869076E-1,1.3813798E-2,1.9272749E-1,6.919378E-2,-2.315917E-3,-1.0514786E-2,1.1574317E-1,7.8064566E-3,-1.2005571E-1,-1.2288344E-2,1.1117462E-2,3.1092098E-2,2.3655091E-1,1.4429022E-1,5.7263374E-2,1.3894799E-2,7.7795866E-3,4.160756E-2,9.387729E-3,3.0647384E-3,5.909408E-2,-1.2786238E-3,-1.3724928E-2,-5.1232822E-2,-3.8171583E-3,3.0521364E-3,2.9315105E-1,1.3328928E-1,1.479394E-2,9.2584744E-2,-7.021697E-4,6.004296E-3,-0E0,1.0931045E-1,1.5372662E-1,-2.1214043E-3,-7.816435E-3,3.19645E-4,1.7795885E-2,3.2380074E-3,9.419351E-4,1.359309E-2,7.6076337E-3,-1.737127E-3,-5.0167306E-3,2.0861018E-3,9.688652E-3,-1.7554343E-3,1.2885048E-2,2.3280538E-5],"categories":[],"categories_nodes":[],"categories_segments":[],"categories_sizes":[],"default_left":[0,0,0,0,0,0,0,0,0,0,0,0,0,0,0,0,0,0,0,0,0,0,0,0,0,0,0,0,0,0,0,0,0,0,0,0,0,0,0,0,0,0,0,0,0,0,0,0,0,0,0,0,0,0,0,0,0,0,0,0,0,0,0,0,0,0,0,0,0],"id":21,"left_children":[1,3,5,-1,7,9,11,13,15,17,19,-1,21,23,25,-1,27,-1,29,31,-1,33,35,-1,-1,37,39,41,-1,-1,43,45,47,49,-1,-1,51,-1,-1,53,-1,-1,55,-1,-1,57,59,-1,61,-1,-1,63,65,67,-1,-1,-1,-1,-1,-1,-1,-1,-1,-1,-1,-1,-1,-1,-1],"loss_changes":[1.0191478E1,3.0899796E0,8.493819E-1,0E0,3.1213102E0,2.1065588E0,1.6238048E0,1.8910973E0,5.513549E-1,1.8008338E0,1.4311647E-1,0E0,3.8639736E-1,5.209255E-1,2.56464E-1,0E0,1.7564416E-1,0E0,2.8694463E-1,1.1152482E-1,0E0,5.19459E-1,1.2751868E-1,0E0,0E0,1.0667363E-1,1.1190318E-1,2.1199965E-1,0E0,0E0,1.2503076E-1,1.3727522E-1,3.2862473E-1,1.0523002E-1,0E0,0E0,1.4272806E-1,0E0,0E0,2.6872337E-1,0E0,0E0,1.2808952E-1,0E0,0E0,2.6092064E-1,2.1521059E-1,0E0,3.1671584E-1,0E0,0E0,1.4069158E-1,2.5873145E-1,2.0116773E-1,0E0,0E0,0E0,0E0,0E0,0E0,0E0,0E0,0E0,0E0,0E0,0E0,0E0,0E0,0E0],"parents":[2147483647,0,0,1,1,2,2,4,4,5,5,6,6,7,7,8,8,9,9,10,10,12,12,13,13,14,14,16,16,18,18,19,19,21,21,22,22,25,25,26,26,27,27,30,30,31,31,32,32,33,33,36,36,39,39,42,42,45,45,46,46,48,48,51,51,52,52,53,53],"right_children":[2,4,6,-1,8,10,12,14,16,18,20,-1,22,24,26,-1,28,-1,30,32,-1,34,36,-1,-1,38,40,42,-1,-1,44,46,48,50,-1,-1,52,-1,-1,54,-1,-1,56,-1,-1,58,60,-1,62,-1,-1,64,66,68,-1,-1,-1,-1,-1,-1,-1,-1,-1,-1,-1,-1,-1,-1,-1],"split_conditions":[1.28E2,5E1,8E0,-3.2283373E-2,8E0,5E1,2.56E2,6.4E1,6.4E1,4E0,5E0,-3.539034E-3,5E1,4E0,7.168E3,-1.9262189E-2,8E0,-1.7818945E-2,4E0,2.56E2,1.3813798E-2,1.6E1,8E0,-2.315917E-3,-1.0514786E-2,4E0,4E0,7.168E3,-1.2288344E-2,1.1117462E-2,5E0,8.192E3,8E0,7.168E3,1.3894799E-2,7.7795866E-3,8.192E3,9.387729E-3,3.0647384E-3,4E0,-1.2786238E-3,-1.3724928E-2,3E0,-3.8171583E-3,3.0521364E-3,6E2,5.12E2,1.479394E-2,4E0,-7.021697E-4,6.004296E-3,3E0,4E0,2.56E2,-2.1214043E-3,-7.816435E-3,3.19645E-4,1.7795885E-2,3.2380074E-3,9.419351E-4,1.359309E-2,7.6076337E-3,-1.737127E-3,-5.0167306E-3,2.0861018E-3,9.688652E-3,-1.7554343E-3,1.2885048E-2,2.3280538E-5],"split_indices":[3,1,4,0,4,1,3,3,3,4,5,0,1,4,2,0,0,0,5,3,0,0,0,0,0,4,4,2,0,0,5,2,0,2,0,0,2,0,0,5,0,0,5,0,0,1,1,0,5,0,0,5,5,1,0,0,0,0,0,0,0,0,0,0,0,0,0,0,0],"split_type":[0,0,0,0,0,0,0,0,0,0,0,0,0,0,0,0,0,0,0,0,0,0,0,0,0,0,0,0,0,0,0,0,0,0,0,0,0,0,0,0,0,0,0,0,0,0,0,0,0,0,0,0,0,0,0,0,0,0,0,0,0,0,0,0,0,0,0,0,0],"sum_hessian":[6.650677E2,2.9973373E2,3.6533395E2,1.1067445E1,2.886663E2,1.8686023E2,1.7847371E2,1.8588824E2,1.0277805E2,5.766906E1,1.2919118E2,6.6671875E1,1.1180184E2,8.886895E1,9.7019295E1,2.9676506E1,7.310155E1,1.0972569E1,4.6696487E1,8.584771E1,4.3343468E1,4.8308723E1,6.349312E1,3.3189182E1,5.5679764E1,3.549332E1,6.1525974E1,2.3332598E1,4.9768948E1,9.81273E0,3.688376E1,3.6469162E1,4.9378544E1,1.974691E1,2.8561811E1,1.3366149E1,5.012697E1,1.3437063E1,2.2056257E1,2.5133375E1,3.63926E1,5.8232913E0,1.7509308E1,6.9752374E0,2.9908522E1,2.1743635E1,1.4725527E1,1.0865876E1,3.851267E1,8.867042E0,1.0879869E1,3.1774483E1,1.8352488E1,1.3251735E1,1.18816395E1,6.2086625E0,1.1300644E1,1.6274769E1,5.468867E0,9.082034E0,5.6434927E0,2.6639997E1,1.1872669E1,8.836223E0,2.2938261E1,1.1801276E1,6.551211E0,7.100635E0,6.151099E0],"tree_param":{"num_deleted":"0","num_feature":"7","num_nodes":"69","size_leaf_vector":"1"}},{"base_weights":[-2.7730042E-4,-1.4436962E-1,1.1403121E-1,-6.0005922E-2,-2.9255027E-1,3.2392893E-2,1.5596859E-1,-2.9931784E-2,-3.7257146E-2,-1.6496299E-1,-1.683413E-2,-3.276403E-2,7.62942E-2,1.27367E-1,1.9572884E-1,-1.2837665E-1,4.8841678E-2,-1.6147522E-2,-9.724502E-2,1.8859251E-1,-3.0952426E-2,1.6556439E-1,-7.5892447E-3,1.9312935E-3,1.0294662E-2,-3.495045E-2,-1.8346344E-1,8.368629E-3,-1.112323E-3,-7.597135E-3,1.5169302E-3,2.2683176E-1,3.8421247E-3,3.8454935E-3,-8.105918E-2,1.2881424E-1,1.046114E-2,4.4410184E-2,-5.8416477E-3,-7.560929E-3,-1.6250573E-4,-1.4752804E-1,-1.5103622E-2,4.5313477E-3,1.3191918E-2,-5.807321E-3,-0E0,-7.454178E-2,1.8250997E-1,-3.083287E-3,4.628654E-3,-8.906941E-3,3.0795796E-5,-1.1651403E-2,4.3594236E-3,1.2851891E-2,9.89957E-2,1.5869491E-3,1.0673075E-2],"categories":[],"categories_nodes":[],"categories_segments":[],"categories_sizes":[],"default_left":[0,0,0,0,0,0,0,0,0,0,0,0,0,0,0,0,0,0,0,0,0,0,0,0,0,0,0,0,0,0,0,0,0,0,0,0,0,0,0,0,0,0,0,0,0,0,0,0,0,0,0,0,0,0,0,0,0,0,0],"id":22,"left_children":[1,3,5,7,9,11,13,-1,15,17,-1,-1,19,21,23,25,27,-1,29,31,33,35,37,-1,-1,39,41,-1,-1,-1,-1,43,-1,-1,45,47,-1,49,-1,-1,-1,51,-1,-1,-1,-1,-1,53,55,-1,-1,-1,-1,-1,-1,-1,57,-1,-1],"loss_changes":[1.0965316E1,3.6325717E0,1.2454348E0,2.2366016E0,4.9263477E-1,3.8530662E0,2.2007656E-1,0E0,1.4507422E0,2.4595869E-1,0E0,0E0,1.4818642E0,7.704866E-1,1.2520504E-1,4.3390214E-1,8.128792E-1,0E0,1.7567173E-1,2.0785046E-1,3.440192E-1,1.2301254E-1,1.9773512E-1,0E0,0E0,1.13863006E-1,1.4738059E-1,0E0,0E0,0E0,0E0,1.5937018E-1,0E0,0E0,1.1922675E-1,7.454473E-1,0E0,1.22243345E-1,0E0,0E0,0E0,2.2310472E-1,0E0,0E0,0E0,0E0,0E0,3.9669287E-1,2.6832557E-1,0E0,0E0,0E0,0E0,0E0,0E0,0E0,1.7821515E-1,0E0,0E0],"parents":[2147483647,0,0,1,1,2,2,3,3,4,4,5,5,6,6,8,8,9,9,12,12,13,13,14,14,15,15,16,16,18,18,19,19,20,20,21,21,22,22,25,25,26,26,31,31,34,34,35,35,37,37,41,41,47,47,48,48,56,56],"right_children":[2,4,6,8,10,12,14,-1,16,18,-1,-1,20,22,24,26,28,-1,30,32,34,36,38,-1,-1,40,42,-1,-1,-1,-1,44,-1,-1,46,48,-1,50,-1,-1,-1,52,-1,-1,-1,-1,-1,54,56,-1,-1,-1,-1,-1,-1,-1,58,-1,-1],"split_conditions":[1.28E2,8E0,2.56E2,5E1,3E0,5E1,5E0,-2.9931784E-2,6.4E1,6.4E1,-1.683413E-2,-3.276403E-2,8E0,4E0,4E0,4E0,4E0,-1.6147522E-2,3.2E1,5E0,2E2,2E2,8E0,1.9312935E-3,1.0294662E-2,1E2,5E0,8.368629E-3,-1.112323E-3,-7.597135E-3,1.5169302E-3,8E0,3.8421247E-3,3.8454935E-3,6E2,4E0,1.046114E-2,7.168E3,-5.8416477E-3,-7.560929E-3,-1.6250573E-4,6E2,-1.5103622E-2,4.5313477E-3,1.3191918E-2,-5.807321E-3,-0E0,5E1,3E0,-3.083287E-3,4.628654E-3,-8.906941E-3,3.0795796E-5,-1.1651403E-2,4.3594236E-3,1.2851891E-2,8.192E3,1.5869491E-3,1.0673075E-2],"split_indices":[3,4,3,1,5,1,5,0,3,3,0,0,4,5,4,4,4,0,0,5,1,1,4,0,0,1,5,0,0,0,0,0,0,0,1,4,0,2,0,0,0,1,0,0,0,0,0,1,5,0,0,0,0,0,0,0,2,0,0],"split_type":[0,0,0,0,0,0,0,0,0,0,0,0,0,0,0,0,0,0,0,0,0,0,0,0,0,0,0,0,0,0,0,0,0,0,0,0,0,0,0,0,0,0,0,0,0,0,0,0,0,0,0,0,0,0,0,0,0,0,0],"sum_hessian":[6.635519E2,2.9380542E2,3.6974646E2,1.8854237E2,1.0526305E2,1.26890076E2,2.4285638E2,6.436337E0,1.8210605E2,2.8852867E1,7.641018E1,6.642193E0,1.2024788E2,1.4515639E2,9.769999E1,8.879916E1,9.3306885E1,7.082794E0,2.1770073E1,5.8825466E1,6.1422413E1,1.13535904E2,3.1620487E1,6.8265066E0,9.087348E1,3.4217186E1,5.4581966E1,3.5000324E1,5.830656E1,1.56524315E1,6.1176405E0,4.2394135E1,1.6431332E1,1.868008E1,4.2742332E1,6.5033745E1,4.8502163E1,2.1205074E1,1.0415412E1,5.847043E0,2.8370144E1,4.425945E1,1.032252E1,1.0371698E1,3.2022434E1,2.9143814E1,1.359852E1,1.3114825E1,5.191892E1,5.8856444E0,1.531943E1,3.707188E1,7.1875668E0,6.713476E0,6.401349E0,2.5704838E1,2.6214083E1,1.7866915E1,8.347167E0],"tree_param":{"num_deleted":"0","num_feature":"7","num_nodes":"59","size_leaf_vector":"1"}},{"base_weights":[3.3944403E-4,-1.3821532E-1,1.10094145E-1,3.8606357E-2,-1.9466792E-1,2.0582067E-2,1.7587544E-1,-3.5048593E-2,1.0011159E-1,-2.982775E-1,-1.3643476E-1,-9.606375E-2,6.912447E-2,1.3287047E-1,1.2306882E-2,-4.913618E-3,2.436573E-2,6.994874E-2,1.1737904E-2,-1.8121015E-2,-1.1412044E-2,-6.472501E-2,-1.9816858E-1,8.9424395E-4,-8.387078E-3,1.1204218E-2,5.4759323E-3,7.6360136E-2,1.839341E-1,-2.2427423E-3,5.613036E-3,8.7793705E-5,7.951597E-3,-5.5880314E-3,-1.3964091E-3,-1.6436676E-2,-1.3999113E-1,-2.0827407E-3,5.1075477E-2,7.3152655E-3,3.0040867E-3,6.6120448E-3,2.3579222E-1,-1.0123699E-1,-1.22467475E-2,5.093834E-3,-1.7008439E-3,9.353765E-3,-2.9381702E-3,1.4341283E-2,4.365705E-3,-8.792785E-3,-3.55038E-2,-5.391491E-3,3.1631773E-3],"categories":[],"categories_nodes":[],"categories_segments":[],"categories_sizes":[],"default_left":[0,0,0,0,0,0,0,0,0,0,0,0,0,0,0,0,0,0,0,0,0,0,0,0,0,0,0,0,0,0,0,0,0,0,0,0,0,0,0,0,0,0,0,0,0,0,0,0,0,0,0,0,0,0,0],"id":23,"left_children":[1,3,5,7,9,11,13,15,17,19,21,23,25,27,-1,-1,29,31,-1,-1,-1,33,35,-1,-1,37,-1,39,41,-1,-1,-1,-1,-1,-1,-1,43,-1,45,-1,47,-1,49,51,-1,-1,-1,-1,-1,-1,-1,-1,53,-1,-1],"loss_changes":[9.944886E0,2.9053178E0,2.1283622E0,3.2839847E-1,1.2399321E0,8.9044684E-1,5.6348085E-1,1.2992369E-1,1.1271155E-1,2.0638466E-1,5.937326E-1,3.9223114E-1,2.4813682E-1,3.44378E-1,0E0,0E0,1.1200513E-1,1.9102052E-1,0E0,0E0,0E0,1.01238966E-1,4.8125696E-1,0E0,0E0,1.0432129E-1,0E0,3.2266217E-1,1.1523795E-1,0E0,0E0,0E0,0E0,0E0,0E0,0E0,1.6247964E-1,0E0,1.3523689E-1,0E0,4.0897685E-1,0E0,1.7908585E-1,1.7983201E-1,0E0,0E0,0E0,0E0,0E0,0E0,0E0,0E0,1.8576065E-1,0E0,0E0],"parents":[2147483647,0,0,1,1,2,2,3,3,4,4,5,5,6,6,7,7,8,8,9,9,10,10,11,11,12,12,13,13,16,16,17,17,21,21,22,22,25,25,27,27,28,28,36,36,38,38,40,40,42,42,43,43,52,52],"right_children":[2,4,6,8,10,12,14,16,18,20,22,24,26,28,-1,-1,30,32,-1,-1,-1,34,36,-1,-1,38,-1,40,42,-1,-1,-1,-1,-1,-1,-1,44,-1,46,-1,48,-1,50,52,-1,-1,-1,-1,-1,-1,-1,-1,54,-1,-1],"split_conditions":[1.28E2,4E0,1E0,6.4E1,1E0,2.56E2,5E0,1.6E1,1E0,6.4E1,8E0,8E0,1.6E1,2.56E2,1.2306882E-2,-4.913618E-3,1E0,5E0,1.1737904E-2,-1.8121015E-2,-1.1412044E-2,6.4E1,6.4E1,8.9424395E-4,-8.387078E-3,4E0,5.4759323E-3,8E0,3E0,-2.2427423E-3,5.613036E-3,8.7793705E-5,7.951597E-3,-5.5880314E-3,-1.3964091E-3,-1.6436676E-2,3.2E1,-2.0827407E-3,8.192E3,7.3152655E-3,8E0,6.6120448E-3,3.2E1,3E0,-1.22467475E-2,5.093834E-3,-1.7008439E-3,9.353765E-3,-2.9381702E-3,1.4341283E-2,4.365705E-3,-8.792785E-3,8.192E3,-5.391491E-3,3.1631773E-3],"split_indices":[3,4,6,3,6,3,5,0,6,3,4,4,0,3,0,0,6,5,0,0,0,3,3,0,0,5,0,4,5,0,0,0,0,0,0,0,0,0,2,0,0,0,0,5,0,0,0,0,0,0,0,0,2,0,0],"split_type":[0,0,0,0,0,0,0,0,0,0,0,0,0,0,0,0,0,0,0,0,0,0,0,0,0,0,0,0,0,0,0,0,0,0,0,0,0,0,0,0,0,0,0,0,0,0,0,0,0,0,0,0,0,0,0],"sum_hessian":[6.521504E2,2.8773816E2,3.6441223E2,6.9280754E1,2.1845743E2,1.555628E2,2.0884941E2,3.0982388E1,3.8298363E1,7.650279E1,1.4195464E2,4.4820812E1,1.1074199E2,1.322303E2,7.661911E1,1.5508556E1,1.5473831E1,3.3137295E1,5.1610694E0,3.7007267E1,3.949552E1,6.736824E1,7.458639E1,1.7058187E1,2.7762627E1,4.7042233E1,6.3699757E1,6.4881714E1,6.734859E1,8.293973E0,7.1798577E0,1.9982792E1,1.3154502E1,2.7483082E1,3.988516E1,2.102702E1,5.355937E1,1.9129128E1,2.7913105E1,3.2006126E1,3.2875587E1,3.647148E1,3.0877111E1,4.1245583E1,1.2313789E1,1.8090685E1,9.822419E0,8.157116E0,2.4718473E1,2.1784344E1,9.092768E0,1.7820072E1,2.3425508E1,1.405439E1,9.371119E0],"tree_param":{"num_deleted":"0","num_feature":"7","num_nodes":"55","size_leaf_vector":"1"}},{"base_weights":[-3.203441E-3,-1.3824032E-1,1.0789107E-1,-3.1519007E-2,-1.1673346E-1,1.5085284E-1,5.6307714E-2,3.6604166E-2,-1.6206247E-1,2.0186074E-2,1.0553176E-2,-6.510682E-2,1.2817664E-1,-4.377595E-2,1.0473309E-1,-2.4047893E-1,-1.0724459E-1,-1.8621346E-2,1.01501405E-1,-4.8197135E-3,4.1168667E-3,2.034225E-1,6.2466595E-2,-0E0,-7.4937115E-3,7.5673573E-3,2.1766487E-4,-9.628389E-3,-1.5898688E-2,-1.6587785E-3,-8.153405E-3,1.6149995E-1,2.0073376E-4,5.382237E-3,1.4041918E-2,4.2583942E-2,9.354581E-3,1.4164569E-2,1.1591128E-1,7.389084E-2,-2.8574413E-2,7.6428237E-3,-0E0,2.9148438E-4,6.3761584E-3,2.4535235E-3,-6.8136775E-3],"categories":[],"categories_nodes":[],"categories_segments":[],"categories_sizes":[],"default_left":[0,0,0,0,0,0,0,0,0,0,0,0,0,0,0,0,0,0,0,0,0,0,0,0,0,0,0,0,0,0,0,0,0,0,0,0,0,0,0,0,0,0,0,0,0,0,0],"id":24,"left_children":[1,3,5,-1,7,9,11,13,15,17,-1,19,21,23,25,27,29,-1,31,-1,-1,33,35,-1,-1,-1,-1,-1,-1,-1,-1,37,-1,-1,-1,39,-1,-1,41,43,45,-1,-1,-1,-1,-1,-1],"loss_changes":[9.812679E0,2.9798107E0,7.649584E-1,0E0,1.996542E0,1.4978695E0,1.4587455E0,3.6797902E-1,8.8660383E-1,2.015096E0,0E0,2.9389045E-1,4.7894037E-1,1.4558814E-1,1.5353915E-1,2.1853733E-1,5.217502E-1,0E0,2.928471E-1,0E0,0E0,2.8466475E-1,1.1304045E-1,0E0,0E0,0E0,0E0,0E0,0E0,0E0,0E0,1.0576415E-1,0E0,0E0,0E0,1.2270072E-1,0E0,0E0,1.2184733E-1,1.22565284E-1,1.4638218E-1,0E0,0E0,0E0,0E0,0E0,0E0],"parents":[2147483647,0,0,1,1,2,2,4,4,5,5,6,6,7,7,8,8,9,9,11,11,12,12,13,13,14,14,15,15,16,16,18,18,21,21,22,22,31,31,35,35,38,38,39,39,40,40],"right_children":[2,4,6,-1,8,10,12,14,16,18,-1,20,22,24,26,28,30,-1,32,-1,-1,34,36,-1,-1,-1,-1,-1,-1,-1,-1,38,-1,-1,-1,40,-1,-1,42,44,46,-1,-1,-1,-1,-1,-1],"split_conditions":[1.28E2,5E1,8E0,-3.1519007E-2,4E0,5E1,2.56E2,6.4E1,6.4E1,4E0,1.0553176E-2,6E2,5E1,5.12E2,8.192E3,8E0,8E0,-1.8621346E-2,1.6E1,-4.8197135E-3,4.1168667E-3,1.6E1,6E2,-0E0,-7.4937115E-3,7.5673573E-3,2.1766487E-4,-9.628389E-3,-1.5898688E-2,-1.6587785E-3,-8.153405E-3,4E0,2.0073376E-4,5.382237E-3,1.4041918E-2,5E0,9.354581E-3,1.4164569E-2,8.192E3,1.6E1,2.56E2,7.6428237E-3,-0E0,2.9148438E-4,6.3761584E-3,2.4535235E-3,-6.8136775E-3],"split_indices":[3,1,4,0,4,1,3,3,3,4,0,1,1,1,2,4,4,0,0,0,0,0,1,0,0,0,0,0,0,0,0,5,0,0,0,5,0,0,2,0,1,0,0,0,0,0,0],"split_type":[0,0,0,0,0,0,0,0,0,0,0,0,0,0,0,0,0,0,0,0,0,0,0,0,0,0,0,0,0,0,0,0,0,0,0,0,0,0,0,0,0,0,0,0,0,0,0],"sum_hessian":[6.5190125E2,2.9453986E2,3.573614E2,1.0952577E1,2.8358725E2,1.9286694E2,1.6449446E2,6.424558E1,2.1934169E2,6.1783333E1,1.310836E2,6.0681873E1,1.03812584E2,2.8963455E1,3.5282124E1,8.810178E1,1.312399E2,9.775361E0,5.2007973E1,5.090447E1,9.777407E0,4.6708347E1,5.710424E1,2.0925722E1,8.037734E0,2.3066576E1,1.2215548E1,5.7393555E1,3.0708235E1,5.7857605E1,7.338229E1,3.1152588E1,2.0855383E1,2.2524082E1,2.4184263E1,5.1096428E1,6.0078115E0,6.467331E0,2.4685257E1,3.6433865E1,1.4662563E1,1.8984493E1,5.700764E0,1.7367363E1,1.9066502E1,8.296864E0,6.3657E0],"tree_param":{"num_deleted":"0","num_feature":"7","num_nodes":"47","size_leaf_vector":"1"}},{"base_weights":[-2.8824592E-3,-1.3572352E-1,1.0168013E-1,-7.351435E-2,-2.4112248E-1,9.53232E-3,1.7001536E-1,-1.6166745E-1,1.6756505E-2,-1.7995374E-2,-1.8110737E-1,-1.304411E-1,3.5291312E-3,2.1438296E-1,1.0969863E-1,-4.330646E-3,-1.982016E-1,4.698031E-2,-3.9629163E-3,-1.4383964E-2,-6.2513524E-3,5.1449235E-5,-9.411927E-3,1.387074E-2,7.039539E-3,8.5095427E-4,1.7076603E-1,-1.31999E-2,-1.2698439E-1,1.5506564E-2,6.682495E-3,9.4517656E-2,2.301856E-1,-6.7360065E-4,-1.7486022E-1,8.380406E-2,-2.1215566E-2,-0E0,7.471807E-3,1.531314E-2,7.099694E-3,-1.1713104E-2,-3.0931027E-3,6.5736114E-3,-7.249142E-4,-3.2317725E-3,8.36692E-3],"categories":[],"categories_nodes":[],"categories_segments":[],"categories_sizes":[],"default_left":[0,0,0,0,0,0,0,0,0,0,0,0,0,0,0,0,0,0,0,0,0,0,0,0,0,0,0,0,0,0,0,0,0,0,0,0,0,0,0,0,0,0,0,0,0,0,0],"id":25,"left_children":[1,3,5,7,9,11,13,15,17,-1,19,21,-1,23,25,-1,27,29,-1,-1,-1,-1,-1,-1,-1,-1,31,-1,33,35,-1,37,39,-1,41,43,45,-1,-1,-1,-1,-1,-1,-1,-1,-1,-1],"loss_changes":[9.000439E0,1.8240666E0,2.2601328E0,1.4630558E0,6.292782E-1,1.3349407E0,4.9854755E-1,2.0820951E-1,2.620011E-1,0E0,3.5505366E-1,3.7743235E-1,0E0,4.6359444E-1,4.923104E-1,0E0,2.1132374E-1,1.738478E-1,0E0,0E0,0E0,0E0,0E0,0E0,0E0,0E0,1.9035411E-1,0E0,1.5139031E-1,1.4171362E-1,0E0,1.4459361E-1,1.0563004E-1,0E0,1.01100504E-1,1.06344014E-1,2.8306332E-1,0E0,0E0,0E0,0E0,0E0,0E0,0E0,0E0,0E0,0E0],"parents":[2147483647,0,0,1,1,2,2,3,3,4,4,5,5,6,6,7,7,8,8,10,10,11,11,13,13,14,14,16,16,17,17,26,26,28,28,29,29,31,31,32,32,34,34,35,35,36,36],"right_children":[2,4,6,8,10,12,14,16,18,-1,20,22,-1,24,26,-1,28,30,-1,-1,-1,-1,-1,-1,-1,-1,32,-1,34,36,-1,38,40,-1,42,44,46,-1,-1,-1,-1,-1,-1,-1,-1,-1,-1],"split_conditions":[1.28E2,8E0,1E0,6.4E1,1E0,2.56E2,8E0,4E0,5E0,-1.7995374E-2,6.4E1,4E0,3.5291312E-3,1.6E1,2.56E2,-4.330646E-3,1E0,3.2E1,-3.9629163E-3,-1.4383964E-2,-6.2513524E-3,5.1449235E-5,-9.411927E-3,1.387074E-2,7.039539E-3,8.5095427E-4,1.6E1,-1.31999E-2,7.168E3,4E0,6.682495E-3,7.168E3,3.2E1,-6.7360065E-4,4E0,4E0,4E0,-0E0,7.471807E-3,1.531314E-2,7.099694E-3,-1.1713104E-2,-3.0931027E-3,6.5736114E-3,-7.249142E-4,-3.2317725E-3,8.36692E-3],"split_indices":[3,4,6,3,6,3,4,4,5,0,3,4,0,0,3,0,6,0,0,0,0,0,0,0,0,0,0,0,2,4,0,2,0,0,5,5,5,0,0,0,0,0,0,0,0,0,0],"split_type":[0,0,0,0,0,0,0,0,0,0,0,0,0,0,0,0,0,0,0,0,0,0,0,0,0,0,0,0,0,0,0,0,0,0,0,0,0,0,0,0,0,0,0,0,0,0,0],"sum_hessian":[6.4573157E2,2.8469742E2,3.6103415E2,1.8069363E2,1.0400377E2,1.5484016E2,2.06194E2,9.157947E1,8.911417E1,3.2672825E1,7.133094E1,4.618185E1,1.0865831E2,1.16377304E2,8.9816696E1,3.1982855E1,5.9596615E1,6.8959206E1,2.015496E1,2.2555264E1,4.877568E1,1.3874336E1,3.2307514E1,6.046256E1,5.591475E1,3.683298E1,5.298371E1,2.8840374E1,3.0756243E1,5.2299538E1,1.6659664E1,2.5077454E1,2.7906258E1,1.0123592E1,2.063265E1,1.8791426E1,3.3508114E1,9.170188E0,1.5907266E1,1.3045862E1,1.4860395E1,1.2240067E1,8.392583E0,1.3112726E1,5.678699E0,2.8201483E1,5.306632E0],"tree_param":{"num_deleted":"0","num_feature":"7","num_nodes":"47","size_leaf_vector":"1"}},{"base_weights":[-4.9459157E-3,-1.3677573E-1,9.851522E-2,-2.267787E-1,-7.066884E-2,2.5029816E-2,1.5617992E-1,-6.1763506E-2,-2.867931E-1,-0E0,-1.6187945E-1,-2.1063967E-2,4.6073686E-2,9.500248E-3,1.0455262E-1,-1.0928116E-2,-2.0601107E-2,-1.1987953E-2,-3.5606974E-1,5.8352046E-2,-3.6337838E-2,-1.2007751E-2,-5.852548E-3,5.1426347E-3,-6.8072796E-2,4.2737075E-3,7.576971E-2,-3.5415098E-5,1.7614868E-1,3.2502548E-3,-3.2158808E-3,-2.507414E-2,-1.42729385E-2,-0E0,6.144452E-3,-3.666857E-3,2.801356E-3,-8.627E-3,-7.02559E-4,5.0274627E-3,-1.5619708E-3,-5.171935E-4,1.1455751E-1,4.2105285E-3,1.13776345E-2,6.2306628E-2,1.8124287E-1,7.0056194E-3,-2.3661875E-3,8.533044E-2,1.4818649E-2,-6.7224534E-4,8.95975E-3],"categories":[],"categories_nodes":[],"categories_segments":[],"categories_sizes":[],"default_left":[0,0,0,0,0,0,0,0,0,0,0,0,0,0,0,0,0,0,0,0,0,0,0,0,0,0,0,0,0,0,0,0,0,0,0,0,0,0,0,0,0,0,0,0,0,0,0,0,0,0,0,0,0],"id":26,"left_children":[1,3,5,7,9,11,13,15,17,19,21,23,25,-1,27,-1,29,-1,31,33,35,-1,-1,-1,37,39,41,-1,43,-1,-1,-1,-1,-1,-1,-1,-1,-1,-1,-1,-1,-1,45,-1,-1,47,49,-1,-1,51,-1,-1,-1],"loss_changes":[8.990901E0,1.6805282E0,1.5406835E0,1.1533742E0,1.0961878E0,1.6264772E-1,3.098569E-1,1.9228227E-1,1.4366198E-1,2.0683911E-1,1.9621825E-1,2.9847017E-1,1.3375962E-1,0E0,6.568139E-1,0E0,1.1149643E-1,0E0,1.15941525E-1,1.3627607E-1,2.0967543E-1,0E0,0E0,0E0,1.9277357E-1,1.8103392E-1,2.302688E-1,0E0,1.9090307E-1,0E0,0E0,0E0,0E0,0E0,0E0,0E0,0E0,0E0,0E0,0E0,0E0,0E0,1.2469715E-1,0E0,0E0,2.5616413E-1,1.4471185E-1,0E0,0E0,1.3174912E-1,0E0,0E0,0E0],"parents":[2147483647,0,0,1,1,2,2,3,3,4,4,5,5,6,6,7,7,8,8,9,9,10,10,11,11,12,12,14,14,16,16,18,18,19,19,20,20,24,24,25,25,26,26,28,28,42,42,45,45,46,46,49,49],"right_children":[2,4,6,8,10,12,14,16,18,20,22,24,26,-1,28,-1,30,-1,32,34,36,-1,-1,-1,38,40,42,-1,44,-1,-1,-1,-1,-1,-1,-1,-1,-1,-1,-1,-1,-1,46,-1,-1,48,50,-1,-1,52,-1,-1,-1],"split_conditions":[1.28E2,6.4E1,1E0,4E0,8E0,2.56E2,8E0,3E0,8E0,7.168E3,1E0,4E0,1.6E1,9.500248E-3,2.56E2,-1.0928116E-2,7.168E3,-1.1987953E-2,1E0,1E0,5E0,-1.2007751E-2,-5.852548E-3,5.1426347E-3,7.168E3,4E0,4E0,-3.5415098E-5,3E0,3.2502548E-3,-3.2158808E-3,-2.507414E-2,-1.42729385E-2,-0E0,6.144452E-3,-3.666857E-3,2.801356E-3,-8.627E-3,-7.02559E-4,5.0274627E-3,-1.5619708E-3,-5.171935E-4,8.192E3,4.2105285E-3,1.13776345E-2,7.168E3,5E0,7.0056194E-3,-2.3661875E-3,3.2E1,1.4818649E-2,-6.7224534E-4,8.95975E-3],"split_indices":[3,3,6,4,4,3,4,5,4,2,6,4,0,0,3,0,2,0,6,6,5,0,0,0,2,4,4,0,5,0,0,0,0,0,0,0,0,0,0,0,0,0,2,0,0,2,5,0,0,0,0,0,0],"split_type":[0,0,0,0,0,0,0,0,0,0,0,0,0,0,0,0,0,0,0,0,0,0,0,0,0,0,0,0,0,0,0,0,0,0,0,0,0,0,0,0,0,0,0,0,0,0,0,0,0,0,0,0,0],"sum_hessian":[6.5692413E2,2.8914328E2,3.6778082E2,1.2077196E2,1.6837134E2,1.6310063E2,2.046802E2,3.31949E1,8.757706E1,9.52616E1,7.310973E1,4.9633083E1,1.13467545E2,1.2087097E2,8.3809235E1,5.5009856E0,2.7693914E1,5.5679146E1,3.1897911E1,3.661589E1,5.8645706E1,2.4224005E1,4.8885727E1,1.2738587E1,3.6894493E1,4.9002804E1,6.4464745E1,3.376343E1,5.00458E1,8.42383E0,1.9270084E1,7.9688835E0,2.3929028E1,2.0110813E1,1.6505077E1,4.2792625E1,1.5853082E1,1.119689E1,2.5697605E1,1.3470099E1,3.5532703E1,1.944646E1,4.5018284E1,1.9590677E1,3.0455124E1,2.7166252E1,1.785203E1,1.6260283E1,1.090597E1,1.1162521E1,6.689509E0,5.33734E0,5.8251815E0],"tree_param":{"num_deleted":"0","num_feature":"7","num_nodes":"53","size_leaf_vector":"1"}},{"base_weights":[3.8623442E-3,-1.2993003E-1,1.0788714E-1,-3.0806009E-2,-1.0886974E-1,5.0518062E-2,1.5173118E-1,2.0285645E-2,-1.5002184E-1,-1.870471E-2,4.0318607E-3,4.1805874E-3,1.84666E-1,-3.8584934E-3,1.07351005E-1,-2.1420771E-1,-1.0401663E-1,2.2196962E-2,-7.4492864E-2,1.24293445E-2,9.6734844E-2,5.448366E-2,1.6351394E-2,-1.6174158E-1,-3.036894E-1,-2.962981E-2,-1.6055028E-1,9.7782835E-2,-3.6731598E-3,5.127479E-4,-6.916792E-3,2.2463566E-3,7.677275E-3,6.7771724E-3,-0E0,-2.0881505E-1,-4.889144E-3,-2.3799611E-2,-2.2219712E-1,-1.00877315E-1,-0E0,-7.604375E-2,-1.1529176E-2,-0E0,8.579013E-3,-1.3352773E-2,-5.6805536E-3,-2.0624695E-3,-1.3521436E-2,1.2609775E-5,-9.383616E-3,-1.1794504E-2,-7.030739E-3,-4.5649232E-3,5.7023116E-3],"categories":[],"categories_nodes":[],"categories_segments":[],"categories_sizes":[],"default_left":[0,0,0,0,0,0,0,0,0,0,0,0,0,0,0,0,0,0,0,0,0,0,0,0,0,0,0,0,0,0,0,0,0,0,0,0,0,0,0,0,0,0,0,0,0,0,0,0,0,0,0,0,0,0,0],"id":27,"left_children":[1,3,5,-1,7,9,11,13,15,17,-1,-1,19,-1,21,23,25,27,29,-1,31,33,-1,35,37,39,41,43,-1,-1,-1,-1,-1,-1,-1,45,-1,-1,47,49,-1,51,-1,-1,-1,-1,-1,-1,-1,-1,-1,53,-1,-1,-1],"loss_changes":[9.002856E0,2.7541475E0,8.886938E-1,0E0,1.463229E0,3.4200326E-1,4.177904E-1,5.720561E-1,5.57734E-1,1.1736606E-1,0E0,0E0,7.081499E-1,0E0,3.6055368E-1,3.017733E-1,4.9577415E-1,2.097051E-1,1.3188356E-1,0E0,1.490171E-1,1.404995E-1,0E0,1.1815417E-1,2.3787808E-1,1.2321029E-1,3.613814E-1,1.0700783E-1,0E0,0E0,0E0,0E0,0E0,0E0,0E0,1.01246476E-1,0E0,0E0,1.5195382E-1,1.669704E-1,0E0,1.22085616E-1,0E0,0E0,0E0,0E0,0E0,0E0,0E0,0E0,0E0,1.9483122E-1,0E0,0E0,0E0],"parents":[2147483647,0,0,1,1,2,2,4,4,5,5,6,6,7,7,8,8,9,9,12,12,14,14,15,15,16,16,17,17,18,18,20,20,21,21,23,23,24,24,25,25,26,26,27,27,35,35,38,38,39,39,41,41,51,51],"right_children":[2,4,6,-1,8,10,12,14,16,18,-1,-1,20,-1,22,24,26,28,30,-1,32,34,-1,36,38,40,42,44,-1,-1,-1,-1,-1,-1,-1,46,-1,-1,48,50,-1,52,-1,-1,-1,-1,-1,-1,-1,-1,-1,54,-1,-1,-1],"split_conditions":[1.28E2,5E1,1E0,-3.0806009E-2,4E0,2.56E2,5E1,6.4E1,6.4E1,2.56E2,4.0318607E-3,4.1805874E-3,8E0,-3.8584934E-3,1E0,8E0,8E0,8.192E3,8E0,1.24293445E-2,2.56E2,7.168E3,1.6351394E-2,1.6E1,1E0,1E0,2.56E2,1E2,-3.6731598E-3,5.127479E-4,-6.916792E-3,2.2463566E-3,7.677275E-3,6.7771724E-3,-0E0,5.12E2,-4.889144E-3,-2.3799611E-2,1E2,2.56E2,-0E0,1.6E1,-1.1529176E-2,-0E0,8.579013E-3,-1.3352773E-2,-5.6805536E-3,-2.0624695E-3,-1.3521436E-2,1.2609775E-5,-9.383616E-3,2E2,-7.030739E-3,-4.5649232E-3,5.7023116E-3],"split_indices":[3,1,6,0,4,3,1,3,3,1,0,0,4,0,6,4,4,2,4,0,3,2,0,0,6,6,1,1,0,0,0,0,0,0,0,1,0,0,1,1,0,0,0,0,0,0,0,0,0,0,0,1,0,0,0],"split_type":[0,0,0,0,0,0,0,0,0,0,0,0,0,0,0,0,0,0,0,0,0,0,0,0,0,0,0,0,0,0,0,0,0,0,0,0,0,0,0,0,0,0,0,0,0,0,0,0,0,0,0,0,0,0,0],"sum_hessian":[6.450138E2,2.8160928E2,3.634045E2,1.0321754E1,2.7128754E2,1.5934183E2,2.0406268E2,6.508766E1,2.0619986E2,4.7418602E1,1.1192323E2,6.864941E1,1.3541327E2,3.0223011E1,3.4864655E1,8.365526E1,1.225446E2,2.667279E1,2.0745811E1,7.669564E1,5.8717632E1,2.9474552E1,5.3901014E0,5.5209282E1,2.844598E1,5.433877E1,6.820583E1,1.5471312E1,1.120148E1,8.60122E0,1.214459E1,3.2568382E1,2.614925E1,1.157141E1,1.7903143E1,2.9597345E1,2.5611937E1,7.185431E0,2.126055E1,1.5881848E1,3.845692E1,3.250135E1,3.570448E1,7.4869385E0,7.9843726E0,1.65919E1,1.3005445E1,5.3011374E0,1.5959411E1,7.263597E0,8.618251E0,1.766035E1,1.4841001E1,1.1477939E1,6.1824117E0],"tree_param":{"num_deleted":"0","num_feature":"7","num_nodes":"55","size_leaf_vector":"1"}},{"base_weights":[-1.9335403E-4,-1.2728067E-1,1.02349885E-1,-3.0485442E-2,-1.075523E-1,1.9549873E-2,1.6740781E-1,3.8354434E-2,-1.5191211E-1,8.20217E-2,-3.3783314E-3,7.3863484E-2,2.098378E-1,-3.372878E-2,1.0188091E-1,-2.268221E-1,-9.845056E-2,-1.4728295E-2,1.4015111E-1,4.312743E-2,-5.3047057E-2,5.8592292E-3,-3.0596416E-2,2.92341E-1,9.886189E-2,-5.1280125E-3,2.2411852E-3,6.2297106E-2,1.381855E-2,-8.557818E-3,-3.1218207E-1,-7.7834283E-4,-1.5802556E-1,1.8502277E-1,-3.7815962E-3,-1.8022184E-3,5.8085574E-3,1.3537629E-3,-4.382108E-3,-9.420476E-3,8.407456E-3,6.698309E-3,1.5418862E-2,5.384071E-4,1.0134645E-2,6.1119436E-3,-1.3400878E-4,-6.467937E-3,-1.778431E-2,-1.2681061E-2,-1.10919416E-1,1.1957378E-2,4.262379E-3,-3.2217603E-4,-7.2471127E-3],"categories":[],"categories_nodes":[],"categories_segments":[],"categories_sizes":[],